{"learner":{"attributes":{"scikit_learn":"{\"_estimator_type\": \"regressor\"}"},"feature_names":[],"feature_types":[],"gradient_booster":{"model":{"cats":{"enc":[],"feature_segments":[],"sorted_idx":[]},"gbtree_model_param":{"num_parallel_tree":"1","num_trees":"300"},"iteration_indptr":[0,1,2,3,4,5,6,7,8,9,10,11,12,13,14,15,16,17,18,19,20,21,22,23,24,25,26,27,28,29,30,31,32,33,34,35,36,37,38,39,40,41,42,43,44,45,46,47,48,49,50,51,52,53,54,55,56,57,58,59,60,61,62,63,64,65,66,67,68,69,70,71,72,73,74,75,76,77,78,79,80,81,82,83,84,85,86,87,88,89,90,91,92,93,94,95,96,97,98,99,100,101,102,103,104,105,106,107,108,109,110,111,112,113,114,115,116,117,118,119,120,121,122,123,124,125,126,127,128,129,130,131,132,133,134,135,136,137,138,139,140,141,142,143,144,145,146,147,148,149,150,151,152,153,154,155,156,157,158,159,160,161,162,163,164,165,166,167,168,169,170,171,172,173,174,175,176,177,178,179,180,181,182,183,184,185,186,187,188,189,190,191,192,193,194,195,196,197,198,199,200,201,202,203,204,205,206,207,208,209,210,211,212,213,214,215,216,217,218,219,220,221,222,223,224,225,226,227,228,229,230,231,232,233,234,235,236,237,238,239,240,241,242,243,244,245,246,247,248,249,250,251,252,253,254,255,256,257,258,259,260,261,262,263,264,265,266,267,268,269,270,271,272,273,274,275,276,277,278,279,280,281,282,283,284,285,286,287,288,289,290,291,292,293,294,295,296,297,298,299,300],"tree_info":[0,0,0,0,0,0,0,0,0,0,0,0,0,0,0,0,0,0,0,0,0,0,0,0,0,0,0,0,0,0,0,0,0,0,0,0,0,0,0,0,0,0,0,0,0,0,0,0,0,0,0,0,0,0,0,0,0,0,0,0,0,0,0,0,0,0,0,0,0,0,0,0,0,0,0,0,0,0,0,0,0,0,0,0,0,0,0,0,0,0,0,0,0,0,0,0,0,0,0,0,0,0,0,0,0,0,0,0,0,0,0,0,0,0,0,0,0,0,0,0,0,0,0,0,0,0,0,0,0,0,0,0,0,0,0,0,0,0,0,0,0,0,0,0,0,0,0,0,0,0,0,0,0,0,0,0,0,0,0,0,0,0,0,0,0,0,0,0,0,0,0,0,0,0,0,0,0,0,0,0,0,0,0,0,0,0,0,0,0,0,0,0,0,0,0,0,0,0,0,0,0,0,0,0,0,0,0,0,0,0,0,0,0,0,0,0,0,0,0,0,0,0,0,0,0,0,0,0,0,0,0,0,0,0,0,0,0,0,0,0,0,0,0,0,0,0,0,0,0,0,0,0,0,0,0,0,0,0,0,0,0,0,0,0,0,0,0,0,0,0,0,0,0,0,0,0,0,0,0,0,0,0,0,0,0,0,0,0,0,0,0,0,0,0,0,0,0,0,0,0],"trees":[{"base_weights":[-2.031502E0,-1.21754395E2,1.0009314E2,-1.9984238E2,-6.87835E1,4.0243847E1,1.5541069E2,-2.6068793E2,-1.6918408E2,-8.972573E1,-4.0053074E1,1.4136787E1,6.664904E1,1.2575757E2,1.8499277E2,-1.47063055E1,-1.091989E1,-9.338206E0,-1.5221762E2,-1.01706985E2,-7.552865E1,-5.2984894E1,-2.3214523E1,1.707744E1,-1.4328864E2,6.852635E1,-3.4728448E0,1.14990585E2,1.4507462E2,-1.0223324E1,1.8689854E2,-8.491629E0,-1.4411667E2,-6.2931857E0,-9.3800125E1,-4.774223E0,-6.97011E1,-6.6914154E1,-4.450036E1,-3.880218E1,-1.1418058E1,3.9143188E0,2.8330254E1,-7.580612E0,-1.9174927E0,5.237091E1,7.951427E1,1.1642178E2,7.9584557E-1,7.320765E0,4.847522E1,8.734603E0,1.0165412E1,-6.4341607E0,-8.253319E0,-4.2161345E0,-5.563217E0,-2.3229547E0,-3.668219E0,-2.7682714E0,-3.6468606E0,-1.7206354E0,-3.101622E0,-2.6045446E0,-1.4290482E0,-1.5954803E-1,-1.6488192E0,-7.1604335E-1,4.7345573E-1,7.229199E-1,1.6877593E0,1.7411464E0,2.9275851E0,3.3358696E0,4.194598E0,5.2845817E0,6.222461E0,5.266764E-1,4.0575075E0],"categories":[],"categories_nodes":[],"categories_segments":[],"categories_sizes":[],"default_left":[0,0,0,0,0,0,0,0,0,0,0,0,0,0,0,0,0,0,0,0,0,0,0,0,0,0,0,0,0,0,0,0,0,0,0,0,0,0,0,0,0,0,0,0,0,0,0,0,0,0,0,0,0,0,0,0,0,0,0,0,0,0,0,0,0,0,0,0,0,0,0,0,0,0,0,0,0,0,0],"id":0,"left_children":[1,3,5,7,9,11,13,15,17,19,21,23,25,27,29,-1,-1,-1,31,33,35,37,39,41,43,45,-1,47,49,-1,51,-1,53,-1,55,-1,57,59,61,63,65,67,69,-1,-1,71,73,75,-1,-1,77,-1,-1,-1,-1,-1,-1,-1,-1,-1,-1,-1,-1,-1,-1,-1,-1,-1,-1,-1,-1,-1,-1,-1,-1,-1,-1,-1,-1],"loss_changes":[4.5311956E7,7.042936E6,6.615178E6,1.24117E6,6.08916E5,6.62224E5,8.88148E5,2.59593E5,1.09073E5,9.2336E4,9.262156E4,2.2696984E5,1.26895E5,9.1887E4,4.22686E5,0E0,0E0,0E0,9.772E3,4.855125E4,2.5092625E4,2.5740812E4,3.4310125E4,7.0543375E4,2.0469062E3,7.962275E4,0E0,4.63565E4,1.660275E4,0E0,6.7842E4,0E0,3.40475E4,0E0,3.067275E4,0E0,1.48970625E4,2.2220625E3,2.5101344E4,9.513172E3,1.9227281E4,2.2521299E4,1.8852188E4,0E0,0E0,1.9002375E4,1.003275E4,1.57025E4,0E0,0E0,4.10417E3,0E0,0E0,0E0,0E0,0E0,0E0,0E0,0E0,0E0,0E0,0E0,0E0,0E0,0E0,0E0,0E0,0E0,0E0,0E0,0E0,0E0,0E0,0E0,0E0,0E0,0E0,0E0,0E0],"parents":[2147483647,0,0,1,1,2,2,3,3,4,4,5,5,6,6,7,7,8,8,9,9,10,10,11,11,12,12,13,13,14,14,18,18,19,19,20,20,21,21,22,22,23,23,24,24,25,25,27,27,28,28,30,30,32,32,34,34,36,36,37,37,38,38,39,39,40,40,41,41,42,42,45,45,46,46,47,47,50,50],"right_children":[2,4,6,8,10,12,14,16,18,20,22,24,26,28,30,-1,-1,-1,32,34,36,38,40,42,44,46,-1,48,50,-1,52,-1,54,-1,56,-1,58,60,62,64,66,68,70,-1,-1,72,74,76,-1,-1,78,-1,-1,-1,-1,-1,-1,-1,-1,-1,-1,-1,-1,-1,-1,-1,-1,-1,-1,-1,-1,-1,-1,-1,-1,-1,-1,-1,-1],"split_conditions":[8.300613E-1,5.330909E-1,1.126981E0,3.047551E-1,7.158712E-1,9.789272E-1,1.3096852E0,3.8346368E-1,4.189896E-1,6.245508E-1,7.629746E-1,8.2381976E-1,8.854258E-1,1.2542332E0,8.617839E-2,-1.47063055E1,-1.091989E1,-9.338206E0,1.2306251E-1,1.8980394E-1,1.955604E-1,2.9157537E-1,3.8996336E-1,8.9860076E-1,2.6458588E-1,1.0356163E0,-3.4728448E0,9.7094756E-1,1.0865122E0,-1.0223324E1,1.235245E0,-8.491629E0,2.736108E-1,-6.2931857E0,3.74103E-1,-4.774223E0,-8.003093E-1,-8.845019E-1,4.579562E-1,7.8442967E-1,5.4288465E-1,3.5662973E-1,4.5508263E-1,-7.580612E0,-1.9174927E0,4.579562E-1,4.995213E-1,1.1954507E0,7.9584557E-1,7.320765E0,6.709585E-1,8.734603E0,1.0165412E1,-6.4341607E0,-8.253319E0,-4.2161345E0,-5.563217E0,-2.3229547E0,-3.668219E0,-2.7682714E0,-3.6468606E0,-1.7206354E0,-3.101622E0,-2.6045446E0,-1.4290482E0,-1.5954803E-1,-1.6488192E0,-7.1604335E-1,4.7345573E-1,7.229199E-1,1.6877593E0,1.7411464E0,2.9275851E0,3.3358696E0,4.194598E0,5.2845817E0,6.222461E0,5.266764E-1,4.0575075E0],"split_indices":[5,5,5,5,5,5,5,2,5,5,5,6,6,5,1,0,0,0,6,6,6,6,6,5,1,5,0,6,6,0,1,0,6,0,6,0,3,3,6,5,6,6,6,0,0,6,6,5,0,0,1,0,0,0,0,0,0,0,0,0,0,0,0,0,0,0,0,0,0,0,0,0,0,0,0,0,0,0,0],"split_type":[0,0,0,0,0,0,0,0,0,0,0,0,0,0,0,0,0,0,0,0,0,0,0,0,0,0,0,0,0,0,0,0,0,0,0,0,0,0,0,0,0,0,0,0,0,0,0,0,0,0,0,0,0,0,0,0,0,0,0,0,0,0,0,0,0,0,0,0,0,0,0,0,0,0,0,0,0,0,0],"sum_hessian":[3.704E3,1.705E3,1.999E3,6.88E2,1.017E3,9.61E2,1.038E3,2.28E2,4.6E2,5.87E2,4.3E2,4.84E2,4.77E2,5.21E2,5.17E2,1.24E2,1.04E2,2.21E2,2.39E2,3.15E2,2.72E2,2.42E2,1.88E2,4.76E2,8E0,4.71E2,6E0,3.39E2,1.82E2,2E0,5.15E2,6.9E1,1.7E2,7.4E1,2.41E2,5.8E1,2.14E2,8.9E1,1.53E2,8E1,1.08E2,2.2E2,2.56E2,7E0,1E0,1.93E2,2.78E2,3.34E2,5E0,1.79E2,3E0,3.02E2,2.13E2,1.02E2,6.8E1,1.6E2,8.1E1,3.1E1,1.83E2,3.4E1,5.5E1,9.9E1,5.4E1,3.3E1,4.7E1,7.9E1,2.9E1,5.1E1,1.69E2,7.3E1,1.83E2,5.2E1,1.41E2,7.5E1,2.03E2,1.49E2,1.85E2,2E0,1E0],"tree_param":{"num_deleted":"0","num_feature":"7","num_nodes":"79","size_leaf_vector":"1"}},{"base_weights":[-4.963353E-1,-1.2086019E2,9.154347E1,-1.8966264E2,-7.144938E1,3.8015564E1,1.5000652E2,-2.5169615E2,-1.6379697E2,-8.916293E1,-4.6838184E1,1.3352517E1,6.788319E1,1.2310754E2,1.7929784E2,-1.4328529E1,-1.05588045E1,-1.7895815E2,-1.4446973E2,-1.05382195E2,-7.906201E1,-5.0873936E1,-2.644222E1,1.1408849E0,2.925602E1,5.6539646E1,8.180562E1,1.1212025E2,7.006064E0,8.1976385E0,1.87965E2,-9.739809E0,-8.53971E0,-8.4808235E0,-1.3843097E2,-6.9379272E0,-1.0040189E2,-5.3271174E0,-7.652671E1,-3.7912636E1,-5.4647427E1,-2.5234337E0,-2.2328995E1,-9.355354E0,8.149879E0,6.0079136E0,3.1693285E1,4.624072E1,6.382728E1,2.7284038E0,4.128803E0,5.200976E0,5.95116E0,9.551038E0,1.0627955E2,-7.207813E0,-5.822984E0,-4.4669213E0,-5.4691157E0,-3.539521E0,-4.2829127E0,-1.1502329E0,-2.5220737E0,-3.307018E0,-2.5802038E0,-6.3865453E-1,-1.3636878E0,-1.4220365E0,-3.2983103E-1,-6.590655E-1,5.263602E-1,7.341672E-1,2.7565632E-2,1.9901619E0,1.3070318E0,1.2034398E0,2.4378295E0,1.8488617E0,3.2229462E0,8.293747E0,-1.5221628E1],"categories":[],"categories_nodes":[],"categories_segments":[],"categories_sizes":[],"default_left":[0,0,0,0,0,0,0,0,0,0,0,0,0,0,0,0,0,0,0,0,0,0,0,0,0,0,0,0,0,0,0,0,0,0,0,0,0,0,0,0,0,0,0,0,0,0,0,0,0,0,0,0,0,0,0,0,0,0,0,0,0,0,0,0,0,0,0,0,0,0,0,0,0,0,0,0,0,0,0,0,0],"id":1,"left_children":[1,3,5,7,9,11,13,15,17,19,21,23,25,27,29,-1,-1,31,33,35,37,39,41,43,45,47,49,51,-1,-1,53,-1,-1,-1,55,-1,57,-1,59,61,63,-1,65,67,69,71,73,75,77,-1,-1,-1,-1,-1,79,-1,-1,-1,-1,-1,-1,-1,-1,-1,-1,-1,-1,-1,-1,-1,-1,-1,-1,-1,-1,-1,-1,-1,-1,-1,-1],"loss_changes":[4.0956336E7,5.432584E6,6.5504E6,1.032208E6,4.03003E5,8.056995E5,7.66622E5,2.15041E5,1.13332E5,8.0464E4,3.1003938E4,1.16685484E5,7.355E4,8.243E4,3.2623E4,0E0,0E0,6.07E2,9.017E3,2.01445E4,1.53955E4,1.39215E4,5.4944453E3,2.516296E4,1.45983125E4,1.7763688E4,1.10875E2,5.737E3,0E0,0E0,5.4082E4,0E0,0E0,0E0,5.6025E3,0E0,8.3105E3,0E0,1.0331625E4,1.3221648E4,5.3660625E3,0E0,2.4394785E3,7.0256387E3,1.0534552E4,1.2227021E3,9.587E3,5.4087188E3,3.130625E2,0E0,0E0,0E0,0E0,0E0,3.6869284E5,0E0,0E0,0E0,0E0,0E0,0E0,0E0,0E0,0E0,0E0,0E0,0E0,0E0,0E0,0E0,0E0,0E0,0E0,0E0,0E0,0E0,0E0,0E0,0E0,0E0,0E0],"parents":[2147483647,0,0,1,1,2,2,3,3,4,4,5,5,6,6,7,7,8,8,9,9,10,10,11,11,12,12,13,13,14,14,17,17,18,18,19,19,20,20,21,21,22,22,23,23,24,24,25,25,26,26,27,27,30,30,34,34,36,36,38,38,39,39,40,40,42,42,43,43,44,44,45,45,46,46,47,47,48,48,54,54],"right_children":[2,4,6,8,10,12,14,16,18,20,22,24,26,28,30,-1,-1,32,34,36,38,40,42,44,46,48,50,52,-1,-1,54,-1,-1,-1,56,-1,58,-1,60,62,64,-1,66,68,70,72,74,76,78,-1,-1,-1,-1,-1,80,-1,-1,-1,-1,-1,-1,-1,-1,-1,-1,-1,-1,-1,-1,-1,-1,-1,-1,-1,-1,-1,-1,-1,-1,-1,-1],"split_conditions":[3.0962622E-1,1.900937E-1,4.5103103E-1,8.69249E-2,2.637484E-1,3.8406402E-1,5.283581E-1,3.714655E-1,1.5461199E-1,2.2302815E-1,3.0153435E-1,3.5504496E-1,4.203468E-1,4.9595472E-1,5.600864E-1,-1.4328529E1,-1.05588045E1,5.274419E-1,1.0750535E-1,1.7949447E-1,2.2748724E-1,-8.845019E-1,2.7547997E-1,3.2454076E-1,4.554528E-1,3.9874455E-1,5.1544374E-1,4.7308332E-1,7.006064E0,8.1976385E0,5.215139E-1,-9.739809E0,-8.53971E0,-8.4808235E0,-4.8037758E-1,-6.9379272E0,7.4340934E-1,-5.3271174E0,8.393948E-1,8.9938575E-1,2.8747818E-1,-2.5234337E0,8.9938575E-1,3.594673E-1,4.0746006E-1,-7.6663226E-1,9.953713E-1,4.4345462E-1,4.9144736E-1,2.7284038E0,4.128803E0,5.200976E0,5.95116E0,9.551038E0,5.8576614E-1,-7.207813E0,-5.822984E0,-4.4669213E0,-5.4691157E0,-3.539521E0,-4.2829127E0,-1.1502329E0,-2.5220737E0,-3.307018E0,-2.5802038E0,-6.3865453E-1,-1.3636878E0,-1.4220365E0,-3.2983103E-1,-6.590655E-1,5.263602E-1,7.341672E-1,2.7565632E-2,1.9901619E0,1.3070318E0,1.2034398E0,2.4378295E0,1.8488617E0,3.2229462E0,8.293747E0,-1.5221628E1],"split_indices":[0,0,0,0,0,0,0,2,0,0,0,0,0,0,0,0,0,2,2,2,2,3,2,0,2,0,2,0,0,0,3,0,0,0,3,0,2,0,2,2,2,0,2,2,2,3,2,2,2,0,0,0,0,0,0,0,0,0,0,0,0,0,0,0,0,0,0,0,0,0,0,0,0,0,0,0,0,0,0,0,0],"split_type":[0,0,0,0,0,0,0,0,0,0,0,0,0,0,0,0,0,0,0,0,0,0,0,0,0,0,0,0,0,0,0,0,0,0,0,0,0,0,0,0,0,0,0,0,0,0,0,0,0,0,0,0,0,0,0,0,0,0,0,0,0,0,0,0,0,0,0,0,0,0,0,0,0,0,0,0,0,0,0,0,0],"sum_hessian":[3.695E3,1.601E3,2.094E3,6.68E2,9.33E2,1.094E3,1E3,1.94E2,4.74E2,5.41E2,3.92E2,6E2,4.94E2,5.24E2,4.76E2,1.01E2,9.3E1,2.61E2,2.13E2,2.04E2,3.37E2,3.26E2,6.6E1,3.4E2,2.6E2,2.75E2,2.19E2,3.23E2,2.01E2,1.79E2,2.97E2,8.1E1,1.8E2,3.6E1,1.77E2,2.3E1,1.81E2,2.5E1,3.12E2,7.6E1,2.5E2,8E0,5.8E1,1.36E2,2.04E2,2.5E1,2.35E2,1.17E2,1.58E2,8E0,2.11E2,1.56E2,1.67E2,2.85E2,1.2E1,1.36E2,4.1E1,8.6E1,9.5E1,1.97E2,1.15E2,3.6E1,4E1,4.8E1,2.02E2,2.1E1,3.7E1,1.6E1,1.2E2,2E1,1.84E2,9E0,1.6E1,9.3E1,1.42E2,1.3E1,1.04E2,5E0,1.53E2,1.1E1,1E0],"tree_param":{"num_deleted":"0","num_feature":"7","num_nodes":"81","size_leaf_vector":"1"}},{"base_weights":[-1.2236414E0,-1.1051831E2,9.176143E1,-1.8161003E2,-6.2762756E1,4.086387E1,1.4399905E2,-2.4038776E2,-1.5444211E2,-8.417279E1,-3.8239967E1,1.7127617E1,6.69532E1,1.1769182E2,1.6970381E2,-1.3512606E1,-9.937633E0,-1.6803856E2,-1.3654924E2,-9.595838E1,-7.203699E1,-4.8606693E1,-1.999873E1,4.9870596E0,2.7925411E1,5.491178E1,7.852665E1,1.0735735E2,6.6927886E0,7.8360453E0,1.7899359E2,-9.161502E0,-8.005192E0,-8.072854E0,-1.3046797E2,-6.349113E0,-9.105467E1,-9.305532E1,-6.916928E1,-3.4107155E1,-5.237583E1,-4.684184E1,-1.6451845E1,-1.5243434E1,7.262194E0,6.3473682E0,3.0544271E1,2.4002722E1,5.627973E1,3.5090458E0,4.1789346E0,4.7954464E0,5.5290856E0,9.108604E0,9.847643E1,-6.852894E0,-5.4265585E0,-5.2287116E0,-4.2893853E0,-2.805062E0,-4.9101043E0,-3.12372E0,-3.9047952E0,-1.054669E0,-2.324087E0,-3.2971227E0,-2.4505498E0,-1.7879918E0,-3.1157079E0,-5.145337E-1,-1.3120449E0,4.2908785E-1,-8.2698554E-1,1.0239681E0,7.171475E-2,7.135738E-1,8.724012E-3,1.8835793E0,1.2658337E0,5.0528383E-1,1.4844017E0,2.83479E0,2.880005E-1,7.807655E0,-1.4841087E1],"categories":[],"categories_nodes":[],"categories_segments":[],"categories_sizes":[],"default_left":[0,0,0,0,0,0,0,0,0,0,0,0,0,0,0,0,0,0,0,0,0,0,0,0,0,0,0,0,0,0,0,0,0,0,0,0,0,0,0,0,0,0,0,0,0,0,0,0,0,0,0,0,0,0,0,0,0,0,0,0,0,0,0,0,0,0,0,0,0,0,0,0,0,0,0,0,0,0,0,0,0,0,0,0,0],"id":2,"left_children":[1,3,5,7,9,11,13,15,17,19,21,23,25,27,29,-1,-1,31,33,35,37,39,41,43,45,47,49,51,-1,-1,53,-1,-1,-1,55,-1,57,59,61,63,65,67,69,71,73,75,77,79,81,-1,-1,-1,-1,-1,83,-1,-1,-1,-1,-1,-1,-1,-1,-1,-1,-1,-1,-1,-1,-1,-1,-1,-1,-1,-1,-1,-1,-1,-1,-1,-1,-1,-1,-1,-1],"loss_changes":[3.7937612E7,5.814462E6,5.35685E6,1.063118E6,5.36516E5,6.3235925E5,6.52866E5,2.14862E5,9.2369E4,7.146675E4,8.998594E4,7.0256734E4,6.355675E4,6.8317E4,3.2372E4,0E0,0E0,2.608E3,1.074375E4,3.027425E4,1.00785E4,1.493675E4,1.5986227E4,1.1801582E4,1.58549375E4,8.8813125E3,4.506375E3,7.2675E2,0E0,0E0,5.4999E4,0E0,0E0,0E0,1.0279E4,0E0,8.189625E3,1.9654688E2,9.762875E3,9.64818E3,7.7695625E3,1.2009414E3,9.198949E3,9.449253E2,1.7610111E4,1.5627781E3,8.47275E3,6.480908E2,4.529E3,0E0,0E0,0E0,0E0,0E0,3.4274288E5,0E0,0E0,0E0,0E0,0E0,0E0,0E0,0E0,0E0,0E0,0E0,0E0,0E0,0E0,0E0,0E0,0E0,0E0,0E0,0E0,0E0,0E0,0E0,0E0,0E0,0E0,0E0,0E0,0E0,0E0],"parents":[2147483647,0,0,1,1,2,2,3,3,4,4,5,5,6,6,7,7,8,8,9,9,10,10,11,11,12,12,13,13,14,14,17,17,18,18,19,19,20,20,21,21,22,22,23,23,24,24,25,25,26,26,27,27,30,30,34,34,36,36,37,37,38,38,39,39,40,40,41,41,42,42,43,43,44,44,45,45,46,46,47,47,48,48,54,54],"right_children":[2,4,6,8,10,12,14,16,18,20,22,24,26,28,30,-1,-1,32,34,36,38,40,42,44,46,48,50,52,-1,-1,54,-1,-1,-1,56,-1,58,60,62,64,66,68,70,72,74,76,78,80,82,-1,-1,-1,-1,-1,84,-1,-1,-1,-1,-1,-1,-1,-1,-1,-1,-1,-1,-1,-1,-1,-1,-1,-1,-1,-1,-1,-1,-1,-1,-1,-1,-1,-1,-1,-1],"split_conditions":[3.2028332E-1,1.900937E-1,4.527502E-1,8.69249E-2,2.637484E-1,3.8794342E-1,5.267379E-1,3.714655E-1,1.5461199E-1,2.3062494E-1,2.9824004E-1,3.5504496E-1,4.203468E-1,4.9595472E-1,5.6473994E-1,-1.3512606E1,-9.937633E0,5.5143833E-1,1.0750535E-1,2.1548904E-1,2.3948541E-1,-8.845019E-1,3.1147456E-1,3.8346368E-1,4.554528E-1,4.554528E-1,4.3114793E-1,4.6200317E-1,6.6927886E0,7.8360453E0,5.215139E-1,-9.161502E0,-8.005192E0,-8.072854E0,-4.8037758E-1,-6.349113E0,2.0466623E-1,-4.972161E-1,8.393948E-1,8.873876E-1,2.8747818E-1,-5.729894E-1,5.2558947E-1,2.5731745E-1,9.11384E-1,-7.6663226E-1,9.953713E-1,3.8346368E-1,1.126981E0,3.5090458E0,4.1789346E0,4.7954464E0,5.5290856E0,9.108604E0,5.8576614E-1,-6.852894E0,-5.4265585E0,-5.2287116E0,-4.2893853E0,-2.805062E0,-4.9101043E0,-3.12372E0,-3.9047952E0,-1.054669E0,-2.324087E0,-3.2971227E0,-2.4505498E0,-1.7879918E0,-3.1157079E0,-5.145337E-1,-1.3120449E0,4.2908785E-1,-8.2698554E-1,1.0239681E0,7.171475E-2,7.135738E-1,8.724012E-3,1.8835793E0,1.2658337E0,5.0528383E-1,1.4844017E0,2.83479E0,2.880005E-1,7.807655E0,-1.4841087E1],"split_indices":[0,0,0,0,0,0,0,2,0,0,0,0,0,0,0,0,0,2,2,2,2,3,2,2,2,2,0,0,0,0,3,0,0,0,3,0,0,3,2,2,2,3,1,1,2,3,2,2,5,0,0,0,0,0,0,0,0,0,0,0,0,0,0,0,0,0,0,0,0,0,0,0,0,0,0,0,0,0,0,0,0,0,0,0,0],"split_type":[0,0,0,0,0,0,0,0,0,0,0,0,0,0,0,0,0,0,0,0,0,0,0,0,0,0,0,0,0,0,0,0,0,0,0,0,0,0,0,0,0,0,0,0,0,0,0,0,0,0,0,0,0,0,0,0,0,0,0,0,0,0,0,0,0,0,0,0,0,0,0,0,0,0,0,0,0,0,0,0,0,0,0,0,0],"sum_hessian":[3.731E3,1.715E3,2.016E3,6.88E2,1.027E3,1.022E3,9.94E2,2.15E2,4.73E2,5.47E2,4.8E2,5.36E2,4.86E2,4.94E2,5E2,1.22E2,9.3E1,2.64E2,2.09E2,2.74E2,2.73E2,3.05E2,1.75E2,2.53E2,2.83E2,2.41E2,2.45E2,3.06E2,1.88E2,2.16E2,2.84E2,8.3E1,1.81E2,3.6E1,1.73E2,3.4E1,2.4E2,2.9E1,2.44E2,6.5E1,2.4E2,1.9E1,1.56E2,2.5E1,2.28E2,3.1E1,2.52E2,1.1E1,2.3E2,9.8E1,1.47E2,7.4E1,2.32E2,2.72E2,1.2E1,1.29E2,4.4E1,6.2E1,1.78E2,5E0,2.4E1,1.44E2,1E2,3.3E1,3.2E1,4.4E1,1.96E2,1.3E1,6E0,9.7E1,5.9E1,1E0,2.4E1,6.9E1,1.59E2,1.3E1,1.8E1,1.04E2,1.48E2,4E0,7E0,2.28E2,2E0,1.1E1,1E0],"tree_param":{"num_deleted":"0","num_feature":"7","num_nodes":"85","size_leaf_vector":"1"}},{"base_weights":[1.0390296E0,-1.00135124E2,9.0220146E1,-1.7506802E2,-5.8946064E1,3.941539E1,1.3444627E2,-2.2048067E2,-1.4767467E2,-8.01042E1,-3.1273705E1,2.1416786E1,6.4857635E1,1.0882137E2,1.601561E2,-1.2649143E1,-9.98014E0,-7.9829955E0,-1.3415523E2,-1.0602573E2,-7.0988815E1,-4.5886646E1,-1.8214636E1,2.2728226E1,-4.1311755E0,6.666532E1,-3.0068634E0,9.938174E1,6.260822E0,1.4820738E2,8.630263E0,-6.83116E0,-4.9388547E0,-6.721116E0,-9.5552475E1,-9.1003334E1,-6.3565998E1,-6.077553E1,-3.907802E1,-1.4591108E1,-6.5718865E0,1.046249E1,3.283798E1,5.514284E1,7.296051E1,1.0141543E2,1.2189094E1,7.439483E0,3.5634606E0,-5.179699E0,-3.899768E0,-4.043614E0,-4.971131E0,-2.4449668E0,-3.3516629E0,-2.493352E0,-3.248181E0,-1.5698435E0,-2.5977666E0,-1.7056948E0,-3.210471E-1,-2.357569E-1,8.100953E-1,9.51266E-1,1.907801E0,1.9241339E0,2.915634E0,3.2640178E0,4.0505605E0,4.3460975E0,5.283086E0,1.5264435E-1,6.474754E-1],"categories":[],"categories_nodes":[],"categories_segments":[],"categories_sizes":[],"default_left":[0,0,0,0,0,0,0,0,0,0,0,0,0,0,0,0,0,0,0,0,0,0,0,0,0,0,0,0,0,0,0,0,0,0,0,0,0,0,0,0,0,0,0,0,0,0,0,0,0,0,0,0,0,0,0,0,0,0,0,0,0,0,0,0,0,0,0,0,0,0,0,0,0],"id":3,"left_children":[1,3,5,7,9,11,13,15,17,19,21,23,25,27,29,-1,-1,-1,31,33,35,37,39,41,-1,43,-1,45,-1,47,-1,-1,-1,-1,49,51,53,55,57,59,-1,61,63,65,67,69,71,-1,-1,-1,-1,-1,-1,-1,-1,-1,-1,-1,-1,-1,-1,-1,-1,-1,-1,-1,-1,-1,-1,-1,-1,-1,-1],"loss_changes":[3.3799508E7,5.40634E6,4.468274E6,7.4121E5,6.61447E5,4.2356525E5,6.83546E5,1.06934E5,4.1936E4,1.44168E5,9.324409E4,7.6238984E4,9.0774375E4,7.0509E4,5.3109E4,0E0,0E0,0E0,3.094E3,3.6227375E4,6.5229E4,2.11435E4,1.0557212E5,6.649434E4,0E0,2.3467875E4,0E0,5.994E4,0E0,1.805E3,0E0,0E0,0E0,0E0,9.427125E3,2.792125E3,1.46225E4,4.15625E0,1.4392578E4,4.0454586E4,0E0,2.1418527E4,2.0943688E4,5.04375E3,9.6745E3,1.1556E4,2.2992432E1,0E0,0E0,0E0,0E0,0E0,0E0,0E0,0E0,0E0,0E0,0E0,0E0,0E0,0E0,0E0,0E0,0E0,0E0,0E0,0E0,0E0,0E0,0E0,0E0,0E0,0E0],"parents":[2147483647,0,0,1,1,2,2,3,3,4,4,5,5,6,6,7,7,8,8,9,9,10,10,11,11,12,12,13,13,14,14,18,18,19,19,20,20,21,21,22,22,23,23,25,25,27,27,29,29,34,34,35,35,36,36,37,37,38,38,39,39,41,41,42,42,43,43,44,44,45,45,46,46],"right_children":[2,4,6,8,10,12,14,16,18,20,22,24,26,28,30,-1,-1,-1,32,34,36,38,40,42,-1,44,-1,46,-1,48,-1,-1,-1,-1,50,52,54,56,58,60,-1,62,64,66,68,70,72,-1,-1,-1,-1,-1,-1,-1,-1,-1,-1,-1,-1,-1,-1,-1,-1,-1,-1,-1,-1,-1,-1,-1,-1,-1,-1],"split_conditions":[1.01462E0,5.874998E-1,1.3568689E0,3.446534E-1,7.158712E-1,1.2074567E0,1.3096852E0,2.144961E-1,4.189896E-1,2.0196572E-1,7.629746E-1,8.458537E-1,8.854258E-1,1.5014536E0,1.7030895E0,-1.2649143E1,-9.98014E0,-7.9829955E0,-2.6989618E-1,5.5592895E-1,6.742374E-1,2.8283408E-1,7.2064865E-1,1.1138835E0,-4.1311755E0,5.5003154E-1,-3.0068634E0,9.8206186E-1,6.260822E0,1.2274756E0,8.630263E0,-6.83116E0,-4.9388547E0,-6.721116E0,7.8332263E-1,3.0995706E-1,-7.6663226E-1,-8.845019E-1,4.579562E-1,3.2514074E-1,-6.5718865E0,4.0082738E-1,4.3485624E-1,4.0554562E-1,1.0812923E0,6.2232554E-1,-1.2296914E0,7.439483E0,3.5634606E0,-5.179699E0,-3.899768E0,-4.043614E0,-4.971131E0,-2.4449668E0,-3.3516629E0,-2.493352E0,-3.248181E0,-1.5698435E0,-2.5977666E0,-1.7056948E0,-3.210471E-1,-2.357569E-1,8.100953E-1,9.51266E-1,1.907801E0,1.9241339E0,2.915634E0,3.2640178E0,4.0505605E0,4.3460975E0,5.283086E0,1.5264435E-1,6.474754E-1],"split_indices":[4,4,4,4,5,4,5,4,5,6,5,6,6,4,4,0,0,0,3,5,4,6,6,4,0,6,0,6,0,6,0,0,0,0,4,6,3,3,6,6,0,6,6,6,5,6,3,0,0,0,0,0,0,0,0,0,0,0,0,0,0,0,0,0,0,0,0,0,0,0,0,0,0],"split_type":[0,0,0,0,0,0,0,0,0,0,0,0,0,0,0,0,0,0,0,0,0,0,0,0,0,0,0,0,0,0,0,0,0,0,0,0,0,0,0,0,0,0,0,0,0,0,0,0,0,0,0,0,0,0,0,0,0,0,0,0,0,0,0,0,0,0,0,0,0,0,0,0,0],"sum_hessian":[3.744E3,1.754E3,1.99E3,6.21E2,1.133E3,9.27E2,1.063E3,2.31E2,3.9E2,6.41E2,4.92E2,5.44E2,3.83E2,5.35E2,5.28E2,8.6E1,1.45E2,2.01E2,1.89E2,1.64E2,4.77E2,2.31E2,2.61E2,5.38E2,6E0,3.78E2,5E0,3.44E2,1.91E2,2.76E2,2.52E2,1.74E2,1.5E1,4.1E1,1.23E2,1.26E2,3.51E2,7E1,1.61E2,2.54E2,7E0,2.44E2,2.94E2,1.37E2,2.41E2,3.36E2,8E0,2.73E2,3E0,8.1E1,4.2E1,6.2E1,6.4E1,7E1,2.81E2,2.3E1,4.7E1,1.03E2,5.8E1,7.4E1,1.8E2,6.7E1,1.77E2,8.3E1,2.11E2,2.4E1,1.13E2,1.28E2,1.13E2,8.1E1,2.55E2,1E0,7E0],"tree_param":{"num_deleted":"0","num_feature":"7","num_nodes":"73","size_leaf_vector":"1"}},{"base_weights":[-1.6325352E-1,-1.00458984E2,8.184821E1,-1.6471933E2,-5.8902496E1,3.514075E1,1.27400215E2,-2.1527135E2,-1.4114418E2,-7.6032364E1,-3.2682896E1,1.5304069E1,5.874933E1,1.02403564E2,1.5058035E2,-1.2260889E1,-9.087323E0,-8.05175E0,-1.3125716E2,-8.912513E1,-6.403171E1,-4.16437E1,-1.7112167E1,4.149163E0,2.5667171E1,4.648221E1,6.622159E1,9.196827E1,5.6487026E0,6.838585E0,1.6021956E2,-6.9220767E0,-1.2127926E2,-6.1089025E0,-8.416765E1,-8.077515E1,-5.9137894E1,-3.652259E1,-5.3140804E1,-4.650367E1,-1.4219402E1,-9.919063E0,8.520954E0,2.9376505E1,9.841593E0,3.2500168E1,5.1502357E1,2.779492E0,6.94097E1,3.6130834E0,9.413883E1,1.01379326E2,8.091879E0,-6.835097E0,-5.5422187E0,-5.4618087E0,-3.841879E0,-4.4245315E0,-3.430329E0,-3.9355762E0,-2.6305606E0,-2.4953175E0,-1.0236709E0,-2.9365017E0,-1.9583005E0,-1.5339012E0,-2.9926963E0,-1.41311E0,-3.560303E-1,-7.9061866E-1,-2.7353412E-1,7.71636E-1,-3.1347367E-1,7.0287895E-1,1.8160654E0,4.0650043E-1,1.2836878E0,2.4450886E-1,1.6774353E0,2.8426235E0,1.7026739E0,2.2582812E0,3.5369892E0,4.890598E0,4.142479E0,8.513026E0,-1.4685817E1],"categories":[],"categories_nodes":[],"categories_segments":[],"categories_sizes":[],"default_left":[0,0,0,0,0,0,0,0,0,0,0,0,0,0,0,0,0,0,0,0,0,0,0,0,0,0,0,0,0,0,0,0,0,0,0,0,0,0,0,0,0,0,0,0,0,0,0,0,0,0,0,0,0,0,0,0,0,0,0,0,0,0,0,0,0,0,0,0,0,0,0,0,0,0,0,0,0,0,0,0,0,0,0,0,0,0,0],"id":4,"left_children":[1,3,5,7,9,11,13,15,17,19,21,23,25,27,29,-1,-1,-1,31,33,35,37,39,41,43,45,47,49,-1,-1,51,-1,53,-1,55,57,59,61,63,65,67,69,71,73,75,77,79,-1,81,-1,83,85,-1,-1,-1,-1,-1,-1,-1,-1,-1,-1,-1,-1,-1,-1,-1,-1,-1,-1,-1,-1,-1,-1,-1,-1,-1,-1,-1,-1,-1,-1,-1,-1,-1,-1,-1],"loss_changes":[3.0754764E7,4.481966E6,4.372037E6,7.56184E5,4.569835E5,4.7537812E5,5.8776E5,1.64254E5,6.7951E4,9.13945E4,5.593503E4,6.3935594E4,3.9453625E4,4.5205E4,4.9697E4,0E0,0E0,0E0,5.2885E3,3.77275E4,2.1935375E4,1.3190781E4,1.209216E4,1.6567418E4,1.6558453E4,1.0890531E4,5.8355E3,4.276E3,0E0,0E0,1.3202E4,0E0,6.8955E3,0E0,3.901525E4,5.94875E2,2.8563125E4,3.785672E4,3.7141094E3,9.103906E2,1.3555557E4,1.5912993E3,2.1053488E4,2.4171172E4,1.3087651E3,1.2834453E3,1.0199906E4,0E0,3.77025E3,0E0,1.43375E3,3.4936962E5,0E0,0E0,0E0,0E0,0E0,0E0,0E0,0E0,0E0,0E0,0E0,0E0,0E0,0E0,0E0,0E0,0E0,0E0,0E0,0E0,0E0,0E0,0E0,0E0,0E0,0E0,0E0,0E0,0E0,0E0,0E0,0E0,0E0,0E0,0E0],"parents":[2147483647,0,0,1,1,2,2,3,3,4,4,5,5,6,6,7,7,8,8,9,9,10,10,11,11,12,12,13,13,14,14,18,18,19,19,20,20,21,21,22,22,23,23,24,24,25,25,26,26,27,27,30,30,32,32,34,34,35,35,36,36,37,37,38,38,39,39,40,40,41,41,42,42,43,43,44,44,45,45,46,46,48,48,50,50,51,51],"right_children":[2,4,6,8,10,12,14,16,18,20,22,24,26,28,30,-1,-1,-1,32,34,36,38,40,42,44,46,48,50,-1,-1,52,-1,54,-1,56,58,60,62,64,66,68,70,72,74,76,78,80,-1,82,-1,84,86,-1,-1,-1,-1,-1,-1,-1,-1,-1,-1,-1,-1,-1,-1,-1,-1,-1,-1,-1,-1,-1,-1,-1,-1,-1,-1,-1,-1,-1,-1,-1,-1,-1,-1,-1],"split_conditions":[3.1769106E-1,1.8704239E-1,4.4842073E-1,8.69249E-2,2.6965302E-1,3.8794342E-1,5.1755697E-1,3.714655E-1,3.7331355E-1,2.3062494E-1,3.0032825E-1,3.5504496E-1,4.095457E-1,4.8259732E-1,5.5645907E-1,-1.2260889E1,-9.087323E0,-8.05175E0,4.6465296E-1,1.7949447E-1,1.955604E-1,4.7037753E-1,2.9947636E-1,3.8996336E-1,6.427095E-1,4.6643794E-1,5.226676E-1,5.1950663E-1,5.6487026E0,6.838585E0,-1.2046023E-1,-6.9220767E0,1.2306251E-1,-6.1089025E0,1.5913996E-1,2.570337E-1,3.1147456E-1,3.2514074E-1,2.88483E-1,6.1220306E-1,3.5152215E-1,2.9157537E-1,5.66754E-1,4.3203828E-1,1.0193677E0,9.593767E-1,6.6301924E-1,2.779492E0,5.1544374E-1,3.6130834E0,7.761089E-1,5.1440682E0,8.091879E0,-6.835097E0,-5.5422187E0,-5.4618087E0,-3.841879E0,-4.4245315E0,-3.430329E0,-3.9355762E0,-2.6305606E0,-2.4953175E0,-1.0236709E0,-2.9365017E0,-1.9583005E0,-1.5339012E0,-2.9926963E0,-1.41311E0,-3.560303E-1,-7.9061866E-1,-2.7353412E-1,7.71636E-1,-3.1347367E-1,7.0287895E-1,1.8160654E0,4.0650043E-1,1.2836878E0,2.4450886E-1,1.6774353E0,2.8426235E0,1.7026739E0,2.2582812E0,3.5369892E0,4.890598E0,4.142479E0,8.513026E0,-1.4685817E1],"split_indices":[0,0,0,0,0,0,0,2,5,0,0,0,0,0,0,0,0,0,5,2,6,6,2,6,6,6,6,6,0,0,2,0,6,0,6,0,2,6,0,6,6,6,6,6,2,2,6,0,2,0,6,0,0,0,0,0,0,0,0,0,0,0,0,0,0,0,0,0,0,0,0,0,0,0,0,0,0,0,0,0,0,0,0,0,0,0,0],"split_type":[0,0,0,0,0,0,0,0,0,0,0,0,0,0,0,0,0,0,0,0,0,0,0,0,0,0,0,0,0,0,0,0,0,0,0,0,0,0,0,0,0,0,0,0,0,0,0,0,0,0,0,0,0,0,0,0,0,0,0,0,0,0,0,0,0,0,0,0,0,0,0,0,0,0,0,0,0,0,0,0,0,0,0,0,0,0,0],"sum_hessian":[3.737E3,1.681E3,2.056E3,6.59E2,1.022E3,1.016E3,1.04E3,2.07E2,4.52E2,6.17E2,4.05E2,5.53E2,4.63E2,5.03E2,5.37E2,1.06E2,1.01E2,1.45E2,3.07E2,2.92E2,3.25E2,2.56E2,1.49E2,2.67E2,2.86E2,1.78E2,2.85E2,2.58E2,2.45E2,2.27E2,3.1E2,1.71E2,1.36E2,3.5E1,2.57E2,7E1,2.55E2,1.8E2,7.6E1,1.2E1,1.37E2,6.3E1,2.04E2,2.31E2,5.5E1,4.9E1,1.29E2,7E1,2.15E2,2.9E1,2.29E2,1E1,3E2,5E1,8.6E1,5.5E1,2.02E2,3.9E1,3.1E1,6.1E1,1.94E2,9.7E1,8.3E1,5.2E1,2.4E1,7E0,5E0,4.5E1,9.2E1,2.6E1,3.7E1,1.39E2,6.5E1,7.3E1,1.58E2,5.1E1,4E0,2E0,4.7E1,9.7E1,3.2E1,1.3E1,2.02E2,1.67E2,6.2E1,9E0,1E0],"tree_param":{"num_deleted":"0","num_feature":"7","num_nodes":"87","size_leaf_vector":"1"}},{"base_weights":[-1.5058835E-1,-9.265339E1,7.984941E1,-1.5225887E2,-5.038076E1,3.514047E1,1.2316237E2,-2.049134E2,-1.3085985E2,-6.710438E1,-2.894263E1,1.8297922E1,6.0593437E1,1.0078528E2,1.4605293E2,-2.3429648E2,-8.632859E0,-1.451612E2,-1.1529644E2,-7.569483E1,-5.686054E1,-3.7301815E1,-1.0345694E1,5.5162354E0,2.7517303E1,5.1230186E1,6.8107056E1,9.229178E1,5.7134004E0,6.7014503E0,1.5455151E2,-1.176533E1,-3.2310548E0,-7.914537E0,-6.918798E0,-6.9413123E0,-1.09624275E2,-4.758531E0,-7.0070465E1,-6.9673035E1,-5.1878334E1,-4.9203625E1,-3.224033E1,-1.1993338E0,-4.8408923E0,-8.567107E0,9.329288E0,3.1346722E1,1.1400755E1,1.8559169E0,5.464582E1,6.0985558E1,7.2381966E1,3.7098262E0,4.7013335E0,1.5746034E2,8.658211E1,-6.565561E0,-4.9153795E0,-4.994755E0,-3.2012608E0,-2.4405735E0,-3.6342068E0,-2.2847774E0,-3.373235E0,-1.8833398E0,-2.8273475E0,-1.1198418E0,-2.4049795E0,1.027049E-1,-1.0238243E0,-6.7141485E-1,-2.4027024E-1,7.6031107E-1,-2.2205491E-1,7.987283E-1,1.8999802E0,3.971366E-1,1.3438152E0,2.9959686E0,2.0555458E0,3.2178795E0,2.3235688E0,1.9332733E0,3.6575787E0,2.1312683E0,7.886242E0,6.864986E0,-1.4318672E1],"categories":[],"categories_nodes":[],"categories_segments":[],"categories_sizes":[],"default_left":[0,0,0,0,0,0,0,0,0,0,0,0,0,0,0,0,0,0,0,0,0,0,0,0,0,0,0,0,0,0,0,0,0,0,0,0,0,0,0,0,0,0,0,0,0,0,0,0,0,0,0,0,0,0,0,0,0,0,0,0,0,0,0,0,0,0,0,0,0,0,0,0,0,0,0,0,0,0,0,0,0,0,0,0,0,0,0,0,0],"id":5,"left_children":[1,3,5,7,9,11,13,15,17,19,21,23,25,27,29,31,-1,33,35,37,39,41,43,45,47,49,51,53,-1,-1,55,-1,-1,-1,-1,-1,57,-1,59,61,63,65,67,-1,69,71,73,75,77,-1,79,81,83,-1,-1,85,87,-1,-1,-1,-1,-1,-1,-1,-1,-1,-1,-1,-1,-1,-1,-1,-1,-1,-1,-1,-1,-1,-1,-1,-1,-1,-1,-1,-1,-1,-1,-1,-1],"loss_changes":[2.7669438E7,4.361454E6,3.878307E6,7.83322E5,3.62317E5,4.2243962E5,5.06725E5,1.5479E5,9.7668E4,4.585575E4,6.910259E4,7.0080375E4,2.415925E4,4.8773E4,3.0481E4,2.7915E3,0E0,1.615E3,1.8281E4,2.695975E4,1.323775E4,1.6967812E4,1.039661E4,1.3558754E4,2.0996703E4,6.5995938E3,2.1311875E3,3.16325E3,0E0,0E0,4.311E4,0E0,0E0,0E0,0E0,0E0,3.789375E4,0E0,3.7236125E4,9.12125E2,1.5612375E4,5.4947344E3,3.311092E4,0E0,1.0930594E4,9.229348E2,1.6091205E4,2.7926062E4,3.4255352E3,0E0,7.6721875E3,1.2672188E3,5.188125E2,0E0,0E0,1.5995E3,3.041348E5,0E0,0E0,0E0,0E0,0E0,0E0,0E0,0E0,0E0,0E0,0E0,0E0,0E0,0E0,0E0,0E0,0E0,0E0,0E0,0E0,0E0,0E0,0E0,0E0,0E0,0E0,0E0,0E0,0E0,0E0,0E0,0E0],"parents":[2147483647,0,0,1,1,2,2,3,3,4,4,5,5,6,6,7,7,8,8,9,9,10,10,11,11,12,12,13,13,14,14,15,15,17,17,18,18,19,19,20,20,21,21,22,22,23,23,24,24,25,25,26,26,27,27,30,30,36,36,38,38,39,39,40,40,41,41,42,42,44,44,45,45,46,46,47,47,48,48,50,50,51,51,52,52,55,55,56,56],"right_children":[2,4,6,8,10,12,14,16,18,20,22,24,26,28,30,32,-1,34,36,38,40,42,44,46,48,50,52,54,-1,-1,56,-1,-1,-1,-1,-1,58,-1,60,62,64,66,68,-1,70,72,74,76,78,-1,80,82,84,-1,-1,86,88,-1,-1,-1,-1,-1,-1,-1,-1,-1,-1,-1,-1,-1,-1,-1,-1,-1,-1,-1,-1,-1,-1,-1,-1,-1,-1,-1,-1,-1,-1,-1,-1],"split_conditions":[3.2313663E-1,1.9890562E-1,4.527502E-1,8.69249E-2,2.713812E-1,3.9472112E-1,5.267379E-1,3.714655E-1,1.5461199E-1,2.4238017E-1,3.0513474E-1,3.5554004E-1,4.203468E-1,4.9595472E-1,5.6473994E-1,2.2222035E0,-8.632859E0,5.394401E-1,1.19503535E-1,1.8980394E-1,2.4200131E-1,2.9692394E-1,3.5152215E-1,3.8996336E-1,6.5169173E-1,4.5674187E-1,4.3114793E-1,5.4103076E-1,5.7134004E0,6.7014503E0,5.215139E-1,-1.176533E1,-3.2310548E0,-7.914537E0,-6.918798E0,-6.9413123E0,1.2306251E-1,-4.758531E0,2.3948541E-1,-8.760826E-1,-5.140546E-1,-8.929211E-1,4.7037753E-1,-1.1993338E0,5.226676E-1,2.9692394E-1,5.66754E-1,4.3485624E-1,1.0193677E0,1.8559169E0,6.6301924E-1,7.015717E-1,5.0344557E-1,3.7098262E0,4.7013335E0,1.3973323E0,5.8576614E-1,-6.565561E0,-4.9153795E0,-4.994755E0,-3.2012608E0,-2.4405735E0,-3.6342068E0,-2.2847774E0,-3.373235E0,-1.8833398E0,-2.8273475E0,-1.1198418E0,-2.4049795E0,1.027049E-1,-1.0238243E0,-6.7141485E-1,-2.4027024E-1,7.6031107E-1,-2.2205491E-1,7.987283E-1,1.8999802E0,3.971366E-1,1.3438152E0,2.9959686E0,2.0555458E0,3.2178795E0,2.3235688E0,1.9332733E0,3.6575787E0,2.1312683E0,7.886242E0,6.864986E0,-1.4318672E1],"split_indices":[0,0,0,0,0,0,0,2,0,0,0,0,0,0,0,3,0,2,2,6,6,6,6,6,6,6,0,6,0,0,3,0,0,0,0,0,6,0,2,3,3,3,6,0,6,6,6,6,2,0,6,6,2,0,0,4,0,0,0,0,0,0,0,0,0,0,0,0,0,0,0,0,0,0,0,0,0,0,0,0,0,0,0,0,0,0,0,0,0],"split_type":[0,0,0,0,0,0,0,0,0,0,0,0,0,0,0,0,0,0,0,0,0,0,0,0,0,0,0,0,0,0,0,0,0,0,0,0,0,0,0,0,0,0,0,0,0,0,0,0,0,0,0,0,0,0,0,0,0,0,0,0,0,0,0,0,0,0,0,0,0,0,0,0,0,0,0,0,0,0,0,0,0,0,0,0,0,0,0,0,0],"sum_hessian":[3.737E3,1.733E3,2.004E3,7.18E2,1.015E3,9.87E2,1.017E3,2.05E2,5.13E2,5.69E2,4.46E2,5.95E2,3.92E2,5.17E2,5E2,1.04E2,1.01E2,2.63E2,2.5E2,3.06E2,2.63E2,3.07E2,1.39E2,2.5E2,3.45E2,1.78E2,2.14E2,3.22E2,1.95E2,2.14E2,2.86E2,1.03E2,1E0,8.2E1,1.81E2,4.4E1,2.06E2,6.5E1,2.41E2,7E1,1.93E2,8.9E1,2.18E2,3.9E1,1E2,5.3E1,1.97E2,2.78E2,6.7E1,3.7E1,1.41E2,8.6E1,1.28E2,3.2E1,2.9E2,2.73E2,1.3E1,6.7E1,1.39E2,3.8E1,2.03E2,1.1E1,5.9E1,1.41E2,5.2E1,3.7E1,5.2E1,1.36E2,8.2E1,7E1,3E1,2.2E1,3.1E1,1.38E2,5.9E1,8.5E1,1.93E2,5.6E1,1.1E1,9.9E1,4.2E1,6.7E1,1.9E1,4E0,1.24E2,1E0,2.72E2,1.2E1,1E0],"tree_param":{"num_deleted":"0","num_feature":"7","num_nodes":"89","size_leaf_vector":"1"}},{"base_weights":[-9.91079E-1,-9.163373E1,7.310722E1,-1.4721196E2,-5.24551E1,2.999655E1,1.1401537E2,-1.933848E2,-1.24845375E2,-6.953545E1,-3.5233414E1,1.2216257E1,5.3021534E1,9.732903E1,1.4274573E2,-2.1659233E2,-7.918285E0,-1.3388202E2,-1.0770196E2,-8.908311E1,-6.335275E1,-4.216911E1,-1.9881815E1,1.4185731E1,-1.1102969E2,5.488496E1,-2.6649635E0,-7.972758E0,9.8339584E1,6.8652253E0,7.881958E0,-1.0864189E1,-3.1502779E0,-7.1727166E0,-6.2980433E0,-5.9900546E0,-9.6019356E1,-1.2074463E0,-4.4718885E0,-7.623491E1,-5.588227E1,-5.4904327E1,-3.5267353E1,-3.5451847E1,-1.2565804E1,1.3701148E0,2.3329895E1,-5.902597E0,-1.3712921E0,4.5703247E1,6.2813683E1,9.92216E1,-1.2966081E2,-6.1138415E0,-4.076588E0,-3.3286417E0,-4.1715264E0,-2.5257735E0,-3.5051625E0,-2.1190422E0,-3.008334E0,-8.807236E-1,-1.9827929E0,-1.399299E0,-2.6986895E0,-3.9156428E-1,-1.251499E0,6.150557E-1,-2.7356368E-1,5.7207847E-1,1.3813776E0,1.6095933E0,2.5269768E0,2.5435772E0,3.294988E0,4.363196E0,5.8448257E0,4.236145E0,-1.3960706E1],"categories":[],"categories_nodes":[],"categories_segments":[],"categories_sizes":[],"default_left":[0,0,0,0,0,0,0,0,0,0,0,0,0,0,0,0,0,0,0,0,0,0,0,0,0,0,0,0,0,0,0,0,0,0,0,0,0,0,0,0,0,0,0,0,0,0,0,0,0,0,0,0,0,0,0,0,0,0,0,0,0,0,0,0,0,0,0,0,0,0,0,0,0,0,0,0,0,0,0],"id":6,"left_children":[1,3,5,7,9,11,13,15,17,19,21,23,25,27,29,31,-1,33,35,37,39,41,43,45,47,49,-1,-1,51,-1,-1,-1,-1,-1,-1,-1,53,-1,-1,55,57,59,61,63,65,67,69,-1,-1,71,73,75,77,-1,-1,-1,-1,-1,-1,-1,-1,-1,-1,-1,-1,-1,-1,-1,-1,-1,-1,-1,-1,-1,-1,-1,-1,-1,-1],"loss_changes":[2.5012106E7,3.639556E6,3.610151E6,6.90505E5,2.8699625E5,4.0833394E5,4.8996E5,1.477455E5,5.82375E4,5.3939E4,5.1546875E4,1.3871734E5,8.9107875E4,1.89022E5,9.474E3,3.28E2,0E0,4.905E3,1.2102E4,5.115625E2,3.2116875E4,2.7772312E4,1.7210652E4,6.5241797E4,2.0461094E3,2.8287125E4,0E0,0E0,1.467985E5,0E0,0E0,0E0,0E0,0E0,0E0,0E0,2.426725E4,0E0,0E0,3.901125E3,1.5004875E4,5.1606875E3,1.649975E4,5.265328E3,6.118254E3,1.749179E4,1.6288797E4,0E0,0E0,1.1572719E4,5.0135625E3,1.30136E5,1.198412E5,0E0,0E0,0E0,0E0,0E0,0E0,0E0,0E0,0E0,0E0,0E0,0E0,0E0,0E0,0E0,0E0,0E0,0E0,0E0,0E0,0E0,0E0,0E0,0E0,0E0,0E0],"parents":[2147483647,0,0,1,1,2,2,3,3,4,4,5,5,6,6,7,7,8,8,9,9,10,10,11,11,12,12,13,13,14,14,15,15,17,17,18,18,19,19,20,20,21,21,22,22,23,23,24,24,25,25,28,28,36,36,39,39,40,40,41,41,42,42,43,43,44,44,45,45,46,46,49,49,50,50,51,51,52,52],"right_children":[2,4,6,8,10,12,14,16,18,20,22,24,26,28,30,32,-1,34,36,38,40,42,44,46,48,50,-1,-1,52,-1,-1,-1,-1,-1,-1,-1,54,-1,-1,56,58,60,62,64,66,68,70,-1,-1,72,74,76,78,-1,-1,-1,-1,-1,-1,-1,-1,-1,-1,-1,-1,-1,-1,-1,-1,-1,-1,-1,-1,-1,-1,-1,-1,-1,-1],"split_conditions":[8.300233E-1,5.33148E-1,1.1496985E0,3.047551E-1,6.9301414E-1,9.8995286E-1,1.4033097E0,3.9546186E-1,4.6465296E-1,2.0196572E-1,7.629746E-1,8.397728E-1,8.854258E-1,8.617839E-2,1.481592E0,2.2222035E0,-7.918285E0,3.7331355E-1,1.5643322E-1,-8.592441E-1,6.0166204E-1,2.8283408E-1,3.2514074E-1,8.9860076E-1,2.6458588E-1,1.0584669E0,-2.6649635E0,-7.972758E0,2.502926E0,6.8652253E0,7.881958E0,-1.0864189E1,-3.1502779E0,-7.1727166E0,-6.2980433E0,-5.9900546E0,2.5148362E-1,-1.2074463E0,-4.4718885E0,3.0995706E-1,4.3203828E-1,-8.845019E-1,-8.5082483E-1,-9.0134037E-1,5.536653E-1,9.11384E-1,4.2889586E-1,-5.902597E0,-1.3712921E0,4.9045557E-1,4.995213E-1,1.2640536E0,-2.9640307E0,-6.1138415E0,-4.076588E0,-3.3286417E0,-4.1715264E0,-2.5257735E0,-3.5051625E0,-2.1190422E0,-3.008334E0,-8.807236E-1,-1.9827929E0,-1.399299E0,-2.6986895E0,-3.9156428E-1,-1.251499E0,6.150557E-1,-2.7356368E-1,5.7207847E-1,1.3813776E0,1.6095933E0,2.5269768E0,2.5435772E0,3.294988E0,4.363196E0,5.8448257E0,4.236145E0,-1.3960706E1],"split_indices":[5,5,5,5,5,5,2,2,5,6,5,6,6,1,5,3,0,5,6,3,5,6,6,5,1,5,0,0,1,0,0,0,0,0,0,0,2,0,0,6,6,3,3,3,6,2,6,0,0,6,6,5,2,0,0,0,0,0,0,0,0,0,0,0,0,0,0,0,0,0,0,0,0,0,0,0,0,0,0],"split_type":[0,0,0,0,0,0,0,0,0,0,0,0,0,0,0,0,0,0,0,0,0,0,0,0,0,0,0,0,0,0,0,0,0,0,0,0,0,0,0,0,0,0,0,0,0,0,0,0,0,0,0,0,0,0,0,0,0,0,0,0,0,0,0,0,0,0,0,0,0,0,0,0,0,0,0,0,0,0,0],"sum_hessian":[3.722E3,1.674E3,2.048E3,6.91E2,9.83E2,9.98E2,1.05E3,2.23E2,4.68E2,4.92E2,4.91E2,5.64E2,4.34E2,6.67E2,3.83E2,1.31E2,9.2E1,3.02E2,1.66E2,1.15E2,3.77E2,3.37E2,1.54E2,5.56E2,8E0,4.27E2,7E0,2E0,6.65E2,2.88E2,9.5E1,1.3E2,1E0,1.29E2,1.73E2,7.7E1,8.9E1,1E0,1.14E2,1.35E2,2.42E2,1.16E2,2.21E2,4.8E1,1.06E2,2.32E2,3.24E2,7E0,1E0,2.01E2,2.26E2,6.63E2,2E0,2.9E1,6E1,6.2E1,7.3E1,1.79E2,6.3E1,3.7E1,7.9E1,4.5E1,1.76E2,3.6E1,1.2E1,7.8E1,2.8E1,8.9E1,1.43E2,8.7E1,2.37E2,5.5E1,1.46E2,5E1,1.76E2,3.99E2,2.64E2,1E0,1E0],"tree_param":{"num_deleted":"0","num_feature":"7","num_nodes":"79","size_leaf_vector":"1"}},{"base_weights":[4.044771E-1,-8.533276E1,7.032391E1,-1.3927448E2,-4.9605274E1,3.330865E1,1.1399181E2,-1.8139648E2,-1.1704596E2,-6.641484E1,-3.0852499E1,1.615179E1,5.8167732E1,9.349079E1,1.3353922E2,-1.0358527E1,-7.5833125E0,-6.328468E0,-1.0468516E2,-7.975789E1,-5.963296E1,-3.7823067E1,-1.4615058E1,3.9462595E0,2.5026941E1,5.016069E1,6.710028E1,4.2725654E0,5.1607366E0,6.272097E0,1.4741728E2,-6.2434754E0,-9.898479E1,-5.596076E0,-7.6329765E1,-8.247939E1,-5.6760525E1,-2.6423492E1,-4.044046E1,-3.7894897E1,-1.2073769E1,-1.441659E1,6.027269E0,2.0824093E1,3.4169724E1,4.5997482E1,2.7365491E0,1.5943276E0,3.3724916E0,1.931865E0,7.3912544E0,-5.23991E0,-3.8024871E0,-3.4401433E0,-4.1178226E0,-1.7334229E0,-4.208627E0,-2.296011E0,-3.0189188E0,-6.368339E-1,-1.8737687E0,-2.0898674E0,-1.3537472E0,-1.285592E0,-2.4926834E0,-2.4116333E-1,-9.125134E-1,-9.098528E-1,-4.5331508E-1,8.925415E-1,4.867685E-2,2.5862166E-1,1.1318059E0,1.9073282E-1,1.7728169E0,1.442241E0,2.3496873E0],"categories":[],"categories_nodes":[],"categories_segments":[],"categories_sizes":[],"default_left":[0,0,0,0,0,0,0,0,0,0,0,0,0,0,0,0,0,0,0,0,0,0,0,0,0,0,0,0,0,0,0,0,0,0,0,0,0,0,0,0,0,0,0,0,0,0,0,0,0,0,0,0,0,0,0,0,0,0,0,0,0,0,0,0,0,0,0,0,0,0,0,0,0,0,0,0,0],"id":7,"left_children":[1,3,5,7,9,11,13,15,17,19,21,23,25,27,29,-1,-1,-1,31,33,35,37,39,41,43,45,47,-1,-1,-1,49,-1,51,-1,53,55,57,59,61,63,65,67,69,71,73,75,-1,-1,-1,-1,-1,-1,-1,-1,-1,-1,-1,-1,-1,-1,-1,-1,-1,-1,-1,-1,-1,-1,-1,-1,-1,-1,-1,-1,-1,-1,-1],"loss_changes":[2.259403E7,3.255844E6,3.351806E6,6.09841E5,3.194815E5,4.7887725E5,3.6902E5,1.45587E5,3.9016E4,4.38375E4,5.4228312E4,7.215464E4,2.94635E4,2.77665E4,3.601E4,0E0,0E0,0E0,1.05365E4,1.10835E4,1.8943375E4,9.016406E3,8.239109E3,1.0863031E4,1.4120766E4,2.163125E3,4.83375E2,0E0,0E0,0E0,1.96325E3,0E0,1.3363E4,0E0,1.773125E3,1.5801562E2,9.895E3,9.506184E3,3.8193125E3,7.578906E2,5.9128555E3,4.215913E2,1.5159913E4,7.4553594E3,4.551375E3,9.514375E2,0E0,0E0,0E0,0E0,0E0,0E0,0E0,0E0,0E0,0E0,0E0,0E0,0E0,0E0,0E0,0E0,0E0,0E0,0E0,0E0,0E0,0E0,0E0,0E0,0E0,0E0,0E0,0E0,0E0,0E0,0E0],"parents":[2147483647,0,0,1,1,2,2,3,3,4,4,5,5,6,6,7,7,8,8,9,9,10,10,11,11,12,12,13,13,14,14,18,18,19,19,20,20,21,21,22,22,23,23,24,24,25,25,26,26,30,30,32,32,34,34,35,35,36,36,37,37,38,38,39,39,40,40,41,41,42,42,43,43,44,44,45,45],"right_children":[2,4,6,8,10,12,14,16,18,20,22,24,26,28,30,-1,-1,-1,32,34,36,38,40,42,44,46,48,-1,-1,-1,50,-1,52,-1,54,56,58,60,62,64,66,68,70,72,74,76,-1,-1,-1,-1,-1,-1,-1,-1,-1,-1,-1,-1,-1,-1,-1,-1,-1,-1,-1,-1,-1,-1,-1,-1,-1,-1,-1,-1,-1,-1,-1],"split_conditions":[3.1769106E-1,1.900937E-1,4.5969892E-1,9.725798E-2,2.617592E-1,3.9874455E-1,5.267379E-1,3.8346368E-1,1.5965252E-1,2.1819465E-1,3.0032825E-1,3.5554004E-1,4.3114793E-1,4.9595472E-1,5.8021253E-1,-1.0358527E1,-7.5833125E0,-6.328468E0,1.19503535E-1,1.4349991E-1,2.2748724E-1,-8.929211E-1,2.9947636E-1,3.8346368E-1,3.8406402E-1,4.163774E-1,5.1544374E-1,4.2725654E0,5.1607366E0,6.272097E0,8.956198E-1,-6.2434754E0,-4.8037758E-1,-5.596076E0,7.4340934E-1,-5.140546E-1,7.3141116E-1,8.9938575E-1,9.2338216E-1,-5.814086E-1,8.9938575E-1,3.2075122E-1,9.11384E-1,4.554528E-1,3.9546186E-1,-1.2465298E0,2.7365491E0,1.5943276E0,3.3724916E0,1.931865E0,7.3912544E0,-5.23991E0,-3.8024871E0,-3.4401433E0,-4.1178226E0,-1.7334229E0,-4.208627E0,-2.296011E0,-3.0189188E0,-6.368339E-1,-1.8737687E0,-2.0898674E0,-1.3537472E0,-1.285592E0,-2.4926834E0,-2.4116333E-1,-9.125134E-1,-9.098528E-1,-4.5331508E-1,8.925415E-1,4.867685E-2,2.5862166E-1,1.1318059E0,1.9073282E-1,1.7728169E0,1.442241E0,2.3496873E0],"split_indices":[0,0,0,0,0,0,0,2,0,0,0,0,0,0,0,0,0,0,2,2,2,3,2,2,0,0,2,0,0,0,1,0,3,0,2,3,2,2,2,3,2,1,2,2,2,3,0,0,0,0,0,0,0,0,0,0,0,0,0,0,0,0,0,0,0,0,0,0,0,0,0,0,0,0,0,0,0],"split_type":[0,0,0,0,0,0,0,0,0,0,0,0,0,0,0,0,0,0,0,0,0,0,0,0,0,0,0,0,0,0,0,0,0,0,0,0,0,0,0,0,0,0,0,0,0,0,0,0,0,0,0,0,0,0,0,0,0,0,0,0,0,0,0,0,0,0,0,0,0,0,0,0,0,0,0,0,0],"sum_hessian":[3.767E3,1.692E3,2.075E3,6.73E2,1.019E3,1.124E3,9.51E2,2.3E2,4.43E2,5.36E2,4.83E2,6.66E2,4.58E2,4.67E2,4.84E2,1.2E2,1.1E2,2.45E2,1.98E2,1.77E2,3.59E2,3.37E2,1.46E2,2.81E2,3.85E2,2.45E2,2.13E2,2.61E2,2.06E2,3.12E2,1.72E2,3.9E1,1.59E2,1.4E1,1.63E2,3.7E1,3.22E2,6.5E1,2.72E2,1.3E1,1.33E2,2.8E1,2.53E2,2.66E2,1.19E2,1.34E2,1.11E2,3E0,2.1E2,1E0,1.71E2,1.24E2,3.5E1,7.8E1,8.5E1,2E0,3.5E1,8.4E1,2.38E2,3E1,3.5E1,2.45E2,2.7E1,8E0,5E0,6.2E1,7.1E1,1.5E1,1.3E1,7.5E1,1.78E2,2.8E1,2.38E2,5E0,1.14E2,9E0,1.25E2],"tree_param":{"num_deleted":"0","num_feature":"7","num_nodes":"77","size_leaf_vector":"1"}},{"base_weights":[-2.2587761E-1,-7.773294E1,6.999902E1,-1.360243E2,-4.516233E1,3.2767517E1,1.06560135E2,-1.7764116E2,-1.1638073E2,-6.1765266E1,-2.3357365E1,1.6834906E1,5.2828716E1,8.540857E1,1.2487667E2,-2.0317511E2,-8.054627E0,-6.6217103E0,-1.06997185E2,-8.333982E1,-5.40726E1,-2.1871414E1,-5.074935E0,1.8022217E1,-7.716272E1,5.362532E1,-2.2907135E0,8.6251114E1,3.359609E-1,1.1467833E2,1.3479408E2,-1.0219204E1,-2.812558E0,-6.318837E0,-1.01938E2,-7.6240685E1,-5.972637E0,-3.6348537E1,-5.8049175E1,-3.444597E1,-1.06636505E1,7.773792E0,2.5262323E1,-4.7800612E0,-1.9716767E0,4.541665E1,6.150972E1,7.723763E1,9.422488E1,2.4213207E0,5.7497206E0,6.5102115E0,7.6807857E0,-5.444444E0,-4.251705E0,-4.082287E0,-3.1050441E0,-1.2301742E0,-2.0459528E0,-3.1806507E0,-2.4612153E0,-2.3764772E0,-1.3904281E0,-1.3449531E0,-1.9057643E-1,-2.7097604E-1,6.412678E-1,6.868979E-1,1.4687861E0,1.717933E0,2.4800413E0,2.4879236E0,3.2559826E0,3.9164703E0,1.2530426E0,4.123893E0,4.9253807E0],"categories":[],"categories_nodes":[],"categories_segments":[],"categories_sizes":[],"default_left":[0,0,0,0,0,0,0,0,0,0,0,0,0,0,0,0,0,0,0,0,0,0,0,0,0,0,0,0,0,0,0,0,0,0,0,0,0,0,0,0,0,0,0,0,0,0,0,0,0,0,0,0,0,0,0,0,0,0,0,0,0,0,0,0,0,0,0,0,0,0,0,0,0,0,0,0,0],"id":8,"left_children":[1,3,5,7,9,11,13,15,17,19,21,23,25,27,29,31,-1,-1,33,35,37,39,-1,41,43,45,-1,47,-1,49,51,-1,-1,-1,53,55,-1,57,59,61,63,65,67,-1,-1,69,71,73,75,-1,-1,-1,-1,-1,-1,-1,-1,-1,-1,-1,-1,-1,-1,-1,-1,-1,-1,-1,-1,-1,-1,-1,-1,-1,-1,-1,-1],"loss_changes":[2.0427298E7,3.380934E6,2.67676E6,5.0171E5,4.134395E5,3.1138638E5,3.74046E5,5.30485E4,5.1659E4,1.0337125E5,5.548878E4,6.2326688E4,3.6403125E4,3.018325E4,3.81465E4,2.00275E3,0E0,0E0,1.4668E4,3.4219375E4,3.1861875E4,6.854875E4,0E0,3.9871453E4,1.0997969E3,2.49715E4,0E0,2.571175E4,0E0,4.325E1,2.719E3,0E0,0E0,0E0,1.753E4,5.935125E3,0E0,3.878211E3,1.6116E4,1.8651688E4,2.88217E4,1.5065052E4,1.4576203E4,0E0,0E0,8.197281E3,5.9226875E3,1.062625E4,3.899E3,0E0,0E0,0E0,0E0,0E0,0E0,0E0,0E0,0E0,0E0,0E0,0E0,0E0,0E0,0E0,0E0,0E0,0E0,0E0,0E0,0E0,0E0,0E0,0E0,0E0,0E0,0E0,0E0],"parents":[2147483647,0,0,1,1,2,2,3,3,4,4,5,5,6,6,7,7,8,8,9,9,10,10,11,11,12,12,13,13,14,14,15,15,18,18,19,19,20,20,21,21,23,23,24,24,25,25,27,27,29,29,30,30,34,34,35,35,37,37,38,38,39,39,40,40,41,41,42,42,45,45,46,46,47,47,48,48],"right_children":[2,4,6,8,10,12,14,16,18,20,22,24,26,28,30,32,-1,-1,34,36,38,40,-1,42,44,46,-1,48,-1,50,52,-1,-1,-1,54,56,-1,58,60,62,64,66,68,-1,-1,70,72,74,76,-1,-1,-1,-1,-1,-1,-1,-1,-1,-1,-1,-1,-1,-1,-1,-1,-1,-1,-1,-1,-1,-1,-1,-1,-1,-1,-1,-1],"split_conditions":[1.01462E0,5.874998E-1,1.3857768E0,3.1575748E-1,7.158712E-1,1.2074567E0,1.3096852E0,1.9055863E-1,3.7331355E-1,2.0196572E-1,7.151054E-1,8.458537E-1,9.3290496E-1,1.1298571E0,1.6938766E0,2.2222035E0,-8.054627E0,-6.6217103E0,8.967325E-2,-6.2350494E-1,-7.4979377E-1,7.629746E-1,-5.074935E0,1.1081306E0,-6.487627E-1,1.0812923E0,-2.2907135E0,1.472577E0,3.359609E-1,1.4783427E0,1.7871331E0,-1.0219204E1,-2.812558E0,-6.318837E0,1.952052E-1,7.8332263E-1,-5.972637E0,-8.171478E-1,6.245255E-1,2.8283408E-1,3.377938E-1,4.0082738E-1,4.3485624E-1,-4.7800612E0,-1.9716767E0,5.226676E-1,5.536653E-1,1.241152E0,6.569384E-1,2.4213207E0,5.7497206E0,6.5102115E0,7.6807857E0,-5.444444E0,-4.251705E0,-4.082287E0,-3.1050441E0,-1.2301742E0,-2.0459528E0,-3.1806507E0,-2.4612153E0,-2.3764772E0,-1.3904281E0,-1.3449531E0,-1.9057643E-1,-2.7097604E-1,6.412678E-1,6.868979E-1,1.4687861E0,1.717933E0,2.4800413E0,2.4879236E0,3.2559826E0,3.9164703E0,1.2530426E0,4.123893E0,4.9253807E0],"split_indices":[4,4,4,4,5,4,5,5,5,6,6,6,6,6,4,3,0,0,6,3,3,5,0,4,3,5,0,4,0,4,5,0,0,0,1,4,0,3,5,6,6,6,6,0,0,6,6,5,6,0,0,0,0,0,0,0,0,0,0,0,0,0,0,0,0,0,0,0,0,0,0,0,0,0,0,0,0],"split_type":[0,0,0,0,0,0,0,0,0,0,0,0,0,0,0,0,0,0,0,0,0,0,0,0,0,0,0,0,0,0,0,0,0,0,0,0,0,0,0,0,0,0,0,0,0,0,0,0,0,0,0,0,0,0,0,0,0,0,0,0,0,0,0,0,0,0,0,0,0,0,0,0,0,0,0,0,0],"sum_hessian":[3.751E3,1.783E3,1.968E3,6.38E2,1.145E3,9.76E2,9.92E2,2.02E2,4.36E2,6.49E2,4.96E2,5.45E2,4.31E2,4.63E2,5.29E2,7.5E1,1.27E2,1.56E2,2.8E2,1.68E2,4.81E2,4.88E2,8E0,5.39E2,6E0,4.28E2,3E0,4.58E2,5E0,2.67E2,2.62E2,7.4E1,1E0,5.3E1,2.27E2,1.43E2,2.5E1,9E1,3.91E2,2.29E2,2.59E2,2.24E2,3.15E2,3E0,3E0,2.13E2,2.15E2,2.2E2,2.38E2,2E0,2.65E2,2.17E2,4.5E1,1.57E2,7E1,1E2,4.3E1,2.7E1,6.3E1,2.36E2,1.55E2,7.5E1,1.54E2,7.6E1,1.83E2,6.2E1,1.62E2,8.4E1,2.31E2,6.1E1,1.52E2,5.4E1,1.61E2,2.15E2,5E0,6.9E1,1.69E2],"tree_param":{"num_deleted":"0","num_feature":"7","num_nodes":"77","size_leaf_vector":"1"}},{"base_weights":[1.1469408E0,-7.43458E1,6.648314E1,-1.3205373E2,-4.3854504E1,3.007028E1,9.957603E1,-1.7165598E2,-1.1439999E2,-6.3461327E1,-2.6105694E1,1.5409705E1,4.877818E1,7.9489914E1,1.1593882E2,-1.9423045E2,-7.7090416E0,-6.285072E0,-1.0506438E2,-8.620199E1,-5.54404E1,-3.503989E1,-1.1099339E1,6.7717843E0,2.4898462E1,4.978923E1,-2.2548378E0,8.044471E1,1.3698166E1,1.273861E2,1.0628118E2,-9.767883E0,-2.742244E0,-6.0725656E0,-1.0138879E2,-7.945638E1,-5.5620475E0,-3.648004E1,-5.866011E1,-4.681334E1,-2.9718103E1,-7.747445E0,-5.0525513E0,7.8933764E0,-3.6716301E0,1.9341085E1,3.666636E1,3.4956985E1,5.2740337E1,7.2766396E1,8.8554214E1,5.2377057E0,1.8230346E0,5.98651E0,6.9468966E0,1.0837496E2,-1.3988489E1,-4.6945777E0,-5.4846687E0,-1.4705086E0,-4.027696E0,-1.1578289E0,-2.120725E0,-2.68651E0,-3.3241265E0,-1.796757E0,-2.6646554E0,-8.356647E-1,-1.6514962E0,-1.0707494E0,-1.7226459E-1,-2.3925363E-1,6.111652E-1,6.43181E-1,1.1799288E0,-1.649293E0,1.9423627E0,1.28429E0,1.9819418E0,2.4372184E0,3.0154207E0,3.688767E0,1.0056458E0,3.6777027E0,4.5915246E0,3.2196352E-1,-4.9291994E-2,4.657055E0,5.546798E0],"categories":[],"categories_nodes":[],"categories_segments":[],"categories_sizes":[],"default_left":[0,0,0,0,0,0,0,0,0,0,0,0,0,0,0,0,0,0,0,0,0,0,0,0,0,0,0,0,0,0,0,0,0,0,0,0,0,0,0,0,0,0,0,0,0,0,0,0,0,0,0,0,0,0,0,0,0,0,0,0,0,0,0,0,0,0,0,0,0,0,0,0,0,0,0,0,0,0,0,0,0,0,0,0,0,0,0,0,0],"id":9,"left_children":[1,3,5,7,9,11,13,15,17,19,21,23,25,27,29,31,-1,-1,33,35,37,39,41,43,45,47,-1,49,51,53,55,-1,-1,-1,57,59,-1,61,63,65,67,69,-1,71,-1,73,75,77,79,81,83,85,-1,-1,-1,87,-1,-1,-1,-1,-1,-1,-1,-1,-1,-1,-1,-1,-1,-1,-1,-1,-1,-1,-1,-1,-1,-1,-1,-1,-1,-1,-1,-1,-1,-1,-1,-1,-1],"loss_changes":[1.846695E7,3.050616E6,2.415455E6,3.99839E5,3.9436475E5,2.6172331E5,3.3621E5,4.2246E4,3.0895E4,9.37175E4,7.991881E4,4.3927547E4,4.2108438E4,2.87365E4,5.0251E4,1.2265E3,0E0,0E0,1.8405E3,1.463875E4,2.2401E4,2.210475E4,6.7056516E4,2.603735E4,1.6032891E4,1.63653125E4,0E0,2.2697E4,1.3496813E3,6.2705E3,2.8816875E5,0E0,0E0,0E0,2.0285E3,3.837625E3,0E0,3.8409453E3,9.616625E3,6.191047E3,1.0689125E4,1.2744592E4,0E0,1.5429584E4,0E0,4.550125E3,1.3585625E4,2.1070938E3,7.4936875E3,1.1584625E4,4.204875E3,5.869403E1,0E0,0E0,0E0,2.074E3,0E0,0E0,0E0,0E0,0E0,0E0,0E0,0E0,0E0,0E0,0E0,0E0,0E0,0E0,0E0,0E0,0E0,0E0,0E0,0E0,0E0,0E0,0E0,0E0,0E0,0E0,0E0,0E0,0E0,0E0,0E0,0E0,0E0],"parents":[2147483647,0,0,1,1,2,2,3,3,4,4,5,5,6,6,7,7,8,8,9,9,10,10,11,11,12,12,13,13,14,14,15,15,18,18,19,19,20,20,21,21,22,22,23,23,24,24,25,25,27,27,28,28,29,29,30,30,34,34,35,35,37,37,38,38,39,39,40,40,41,41,43,43,45,45,46,46,47,47,48,48,49,49,50,50,51,51,55,55],"right_children":[2,4,6,8,10,12,14,16,18,20,22,24,26,28,30,32,-1,-1,34,36,38,40,42,44,46,48,-1,50,52,54,56,-1,-1,-1,58,60,-1,62,64,66,68,70,-1,72,-1,74,76,78,80,82,84,86,-1,-1,-1,88,-1,-1,-1,-1,-1,-1,-1,-1,-1,-1,-1,-1,-1,-1,-1,-1,-1,-1,-1,-1,-1,-1,-1,-1,-1,-1,-1,-1,-1,-1,-1,-1,-1],"split_conditions":[1.01462E0,5.759066E-1,1.37993E0,2.916255E-1,6.9301414E-1,1.2074567E0,1.5641154E0,1.9055863E-1,3.7331355E-1,1.8980394E-1,7.8438526E-1,1.1254767E0,9.248496E-1,1.0865122E0,-1.6759119E0,2.2222035E0,-7.7090416E0,-6.285072E0,6.0418256E-2,-6.0666645E-1,-7.329553E-1,2.7787483E-1,7.2064865E-1,7.761089E-1,-1.0107907E0,4.6238708E-1,-2.2548378E0,1.472577E0,6.709585E-1,1.7818938E0,1.3621323E0,-9.767883E0,-2.742244E0,-6.0725656E0,2.736108E-1,-8.5082483E-1,-5.5620475E0,-7.9189E-1,3.74103E-1,-8.760826E-1,-8.5082483E-1,3.5152215E-1,-5.0525513E0,4.0082738E-1,-3.6716301E0,4.3485624E-1,3.5511118E-1,1.2585437E0,1.3221639E0,1.241152E0,6.245502E-1,6.088463E-1,1.8230346E0,5.98651E0,6.9468966E0,7.245975E-1,-1.3988489E1,-4.6945777E0,-5.4846687E0,-1.4705086E0,-4.027696E0,-1.1578289E0,-2.120725E0,-2.68651E0,-3.3241265E0,-1.796757E0,-2.6646554E0,-8.356647E-1,-1.6514962E0,-1.0707494E0,-1.7226459E-1,-2.3925363E-1,6.111652E-1,6.43181E-1,1.1799288E0,-1.649293E0,1.9423627E0,1.28429E0,1.9819418E0,2.4372184E0,3.0154207E0,3.688767E0,1.0056458E0,3.6777027E0,4.5915246E0,3.2196352E-1,-4.9291994E-2,4.657055E0,5.546798E0],"split_indices":[4,4,4,4,5,4,4,5,5,6,5,4,6,6,3,3,0,0,6,3,3,6,6,6,3,6,0,4,1,4,1,0,0,0,6,3,0,3,6,3,3,6,0,6,0,6,1,4,4,5,6,1,0,0,0,6,0,0,0,0,0,0,0,0,0,0,0,0,0,0,0,0,0,0,0,0,0,0,0,0,0,0,0,0,0,0,0,0,0],"split_type":[0,0,0,0,0,0,0,0,0,0,0,0,0,0,0,0,0,0,0,0,0,0,0,0,0,0,0,0,0,0,0,0,0,0,0,0,0,0,0,0,0,0,0,0,0,0,0,0,0,0,0,0,0,0,0,0,0,0,0,0,0,0,0,0,0,0,0,0,0,0,0,0,0,0,0,0,0,0,0,0,0,0,0,0,0,0,0,0,0],"sum_hessian":[3.742E3,1.736E3,2.006E3,5.99E2,1.137E3,9.56E2,1.05E3,1.82E2,4.17E2,5.39E2,5.98E2,5.37E2,4.19E2,4.74E2,5.76E2,7.5E1,1.07E2,1.83E2,2.34E2,1.38E2,4.01E2,3.74E2,2.24E2,2.82E2,2.55E2,4.15E2,4E0,4.67E2,7E0,2.58E2,3.18E2,7.4E1,1E0,3.7E1,1.97E2,1.12E2,2.6E1,6E1,3.41E2,1.14E2,2.6E2,2.17E2,7E0,2.79E2,3E0,1.75E2,8E1,7.1E1,3.44E2,2.45E2,2.22E2,6E0,1E0,1.62E2,9.6E1,3.17E2,1E0,1.1E2,8.7E1,3E0,1.09E2,2E1,4E1,2.14E2,1.27E2,4.5E1,6.9E1,5.4E1,2.06E2,5.1E1,1.66E2,7.1E1,2.08E2,7.1E1,1.04E2,2E0,7.8E1,2.6E1,4.5E1,2.3E2,1.14E2,2.4E2,5E0,4.4E1,1.78E2,5E0,1E0,5.1E1,2.66E2],"tree_param":{"num_deleted":"0","num_feature":"7","num_nodes":"89","size_leaf_vector":"1"}},{"base_weights":[-3.8175505E-2,-7.2815834E1,6.1624237E1,-1.188207E2,-4.0939526E1,3.0800865E1,9.7966225E1,-1.6030698E2,-1.0222084E2,-5.609411E1,-2.470064E1,1.5109678E1,5.0375282E1,8.115127E1,1.1361175E2,-1.8512506E2,-1.465795E2,-1.1175736E2,-9.102484E1,-6.942103E1,-5.2194695E1,-3.1915009E1,-1.1266563E1,4.7956185E0,2.1700981E1,4.1348167E1,5.6229458E1,7.488994E1,4.5236354E0,5.1203303E0,1.1881933E2,-9.36186E0,-3.9179037E0,-6.71993E0,-8.502002E0,-6.163954E0,-5.335417E0,-5.374222E0,-8.5850395E1,-7.338248E1,-2.7316453E0,-4.648151E1,-6.428975E1,-4.2391487E1,-2.639875E1,-2.001747E1,-7.587778E0,-5.433709E0,8.552158E0,2.5081654E1,7.50126E0,1.4583371E0,4.4243683E1,2.3319652E0,5.9138916E1,3.2412288E0,7.7552925E1,1.20509384E2,7.0158134E1,-3.741598E0,-4.883682E0,-2.299831E0,-3.74216E0,-2.938958E0,-2.1557314E0,-3.7972448E0,-2.4557378E0,-2.1912775E0,-1.2049277E0,-8.351774E-1,-2.0035455E0,-1.1894224E0,-8.1024855E-1,-1.20505504E-1,-1.1037327E0,-5.800475E-1,-1.07600585E-1,7.4103016E-1,-2.4045339E-1,6.7019373E-1,1.605851E0,8.0000935E-3,6.8544954E-1,2.420141E0,1.6546853E0,3.161892E0,2.44786E0,4.026567E0,3.2421243E0,5.71757E0,6.5093164E0,6.073362E0,-1.3638778E1],"categories":[],"categories_nodes":[],"categories_segments":[],"categories_sizes":[],"default_left":[0,0,0,0,0,0,0,0,0,0,0,0,0,0,0,0,0,0,0,0,0,0,0,0,0,0,0,0,0,0,0,0,0,0,0,0,0,0,0,0,0,0,0,0,0,0,0,0,0,0,0,0,0,0,0,0,0,0,0,0,0,0,0,0,0,0,0,0,0,0,0,0,0,0,0,0,0,0,0,0,0,0,0,0,0,0,0,0,0,0,0,0,0],"id":10,"left_children":[1,3,5,7,9,11,13,15,17,19,21,23,25,27,29,31,33,35,37,39,41,43,45,47,49,51,53,55,-1,-1,57,-1,-1,-1,-1,-1,-1,-1,59,61,-1,63,65,67,69,71,73,75,77,79,81,-1,83,-1,85,-1,87,89,91,-1,-1,-1,-1,-1,-1,-1,-1,-1,-1,-1,-1,-1,-1,-1,-1,-1,-1,-1,-1,-1,-1,-1,-1,-1,-1,-1,-1,-1,-1,-1,-1,-1,-1],"loss_changes":[1.6554925E7,2.476395E6,2.233987E6,4.60171E5,2.4495412E5,3.3157056E5,2.31761E5,3.96395E4,4.28925E4,2.32435E4,4.6645875E4,4.0821766E4,2.3094125E4,1.919675E4,1.5374E4,2.1175E2,1.458275E4,2.20275E3,1.0702E4,2.6693125E3,2.4928625E4,1.7085062E4,5.3530645E3,9.115212E3,1.7429547E4,5.5169375E3,5.3055625E3,2.26325E3,0E0,0E0,1.7533E4,0E0,0E0,0E0,0E0,0E0,0E0,0E0,1.6530875E4,3.775E1,0E0,8.9763125E3,1.8732062E4,1.7508125E3,2.7034531E4,3.3335156E2,9.097803E3,1.2703317E3,1.4560732E4,2.388811E4,3.279031E3,0E0,5.5398125E3,0E0,6.0020625E3,0E0,2.728125E3,3.2285E3,2.6187638E5,0E0,0E0,0E0,0E0,0E0,0E0,0E0,0E0,0E0,0E0,0E0,0E0,0E0,0E0,0E0,0E0,0E0,0E0,0E0,0E0,0E0,0E0,0E0,0E0,0E0,0E0,0E0,0E0,0E0,0E0,0E0,0E0,0E0,0E0],"parents":[2147483647,0,0,1,1,2,2,3,3,4,4,5,5,6,6,7,7,8,8,9,9,10,10,11,11,12,12,13,13,14,14,15,15,16,16,17,17,18,18,19,19,20,20,21,21,22,22,23,23,24,24,25,25,26,26,27,27,30,30,38,38,39,39,41,41,42,42,43,43,44,44,45,45,46,46,47,47,48,48,49,49,50,50,52,52,54,54,56,56,57,57,58,58],"right_children":[2,4,6,8,10,12,14,16,18,20,22,24,26,28,30,32,34,36,38,40,42,44,46,48,50,52,54,56,-1,-1,58,-1,-1,-1,-1,-1,-1,-1,60,62,-1,64,66,68,70,72,74,76,78,80,82,-1,84,-1,86,-1,88,90,92,-1,-1,-1,-1,-1,-1,-1,-1,-1,-1,-1,-1,-1,-1,-1,-1,-1,-1,-1,-1,-1,-1,-1,-1,-1,-1,-1,-1,-1,-1,-1,-1,-1,-1],"split_conditions":[3.2308263E-1,1.9439615E-1,4.6200317E-1,8.69249E-2,2.637484E-1,3.9874455E-1,5.283581E-1,1.9037132E-1,1.5461199E-1,2.0196572E-1,3.0032825E-1,3.5504496E-1,4.2376718E-1,5.004822E-1,5.5345273E-1,7.1425274E-2,7.626686E-2,1.0860817E-1,1.0558923E-1,7.8992057E-1,4.113021E-1,2.9692394E-1,3.5152215E-1,3.9683217E-1,6.5169173E-1,4.5674187E-1,5.5673355E-1,6.188123E-1,4.5236354E0,5.1203303E0,1.8448689E0,-9.36186E0,-3.9179037E0,-6.71993E0,-8.502002E0,-6.163954E0,-5.335417E0,-5.374222E0,2.5361618E-1,3.0092818E-1,-2.7316453E0,6.579863E-1,2.4427937E-1,5.2955407E-1,4.7037753E-1,3.123355E-1,5.536653E-1,2.9692394E-1,5.66754E-1,4.579562E-1,3.7714228E-1,1.4583371E0,6.6301924E-1,2.3319652E0,7.3077106E-1,3.2412288E0,8.1404954E-1,5.888445E-1,2.502926E0,-3.741598E0,-4.883682E0,-2.299831E0,-3.74216E0,-2.938958E0,-2.1557314E0,-3.7972448E0,-2.4557378E0,-2.1912775E0,-1.2049277E0,-8.351774E-1,-2.0035455E0,-1.1894224E0,-8.1024855E-1,-1.20505504E-1,-1.1037327E0,-5.800475E-1,-1.07600585E-1,7.4103016E-1,-2.4045339E-1,6.7019373E-1,1.605851E0,8.0000935E-3,6.8544954E-1,2.420141E0,1.6546853E0,3.161892E0,2.44786E0,4.026567E0,3.2421243E0,5.71757E0,6.5093164E0,6.073362E0,-1.3638778E1],"split_indices":[0,0,0,0,0,0,0,4,0,6,0,0,0,0,0,0,1,0,6,4,6,6,6,6,6,6,6,6,0,0,5,0,0,0,0,0,0,0,6,1,0,4,0,1,6,0,6,6,6,6,0,0,6,0,6,0,6,0,1,0,0,0,0,0,0,0,0,0,0,0,0,0,0,0,0,0,0,0,0,0,0,0,0,0,0,0,0,0,0,0,0,0,0],"split_type":[0,0,0,0,0,0,0,0,0,0,0,0,0,0,0,0,0,0,0,0,0,0,0,0,0,0,0,0,0,0,0,0,0,0,0,0,0,0,0,0,0,0,0,0,0,0,0,0,0,0,0,0,0,0,0,0,0,0,0,0,0,0,0,0,0,0,0,0,0,0,0,0,0,0,0,0,0,0,0,0,0,0,0,0,0,0,0,0,0,0,0,0,0],"sum_hessian":[3.687E3,1.691E3,1.996E3,6.91E2,1E3,1.081E3,9.15E2,1.95E2,4.96E2,5.16E2,4.84E2,6.01E2,4.8E2,4.44E2,4.71E2,6.5E1,1.3E2,2.63E2,2.33E2,1.13E2,4.03E2,3.14E2,1.7E2,2.35E2,3.66E2,1.92E2,2.88E2,2.71E2,1.73E2,1.56E2,3.15E2,6.3E1,2E0,9E1,4E1,7.3E1,1.9E2,5.1E1,1.82E2,8.6E1,2.7E1,2.77E2,1.26E2,1.06E2,2.08E2,4.9E1,1.21E2,6.3E1,1.72E2,2.95E2,7.1E1,3.9E1,1.53E2,7.1E1,2.17E2,6.2E1,2.09E2,3.03E2,1.2E1,9.8E1,8.4E1,6E0,8E1,5.6E1,2.21E2,6.9E1,5.7E1,9.7E1,9E0,1.23E2,8.5E1,2.2E1,2.7E1,9E1,3.1E1,2.1E1,4.2E1,1.17E2,5.5E1,1.12E2,1.83E2,3.3E1,3.8E1,1.09E2,4.4E1,1.51E2,6.6E1,1.65E2,4.4E1,1.93E2,1.1E2,1.1E1,1E0],"tree_param":{"num_deleted":"0","num_feature":"7","num_nodes":"93","size_leaf_vector":"1"}},{"base_weights":[-6.003537E-1,-7.438717E1,5.417843E1,-1.1592342E2,-4.415967E1,2.1015394E1,8.9271965E1,-1.491684E2,-9.713211E1,-5.773536E1,-3.2965015E1,6.9236007E0,4.043E1,7.1646194E1,1.0554987E2,-1.7490425E2,-1.2509501E2,-1.0425022E2,-8.780273E1,-3.7766545E0,-5.3246284E1,-4.385373E1,-2.8721462E1,-2.838492E0,1.4664467E1,3.201485E1,4.554392E1,6.3801712E1,7.951832E1,4.753309E0,1.1220141E2,-8.779731E0,-2.4396408E0,-6.431769E0,-4.7309966E0,-5.872414E0,-9.914162E1,-5.273131E0,-8.3474174E1,-3.9895222E0,-4.8180763E1,-3.1721407E1,-5.088007E1,-2.2133455E1,-4.114667E1,-1.39002695E1,1.4381857E0,1.7876514E1,3.1756861E0,1.93049E1,3.567765E1,3.8009296E1,4.7641068E1,6.6478195E1,2.7366765E0,3.4050984E0,4.08677E0,1.1438715E2,5.5788395E1,-6.1527534E0,-4.8174944E0,-4.995024E0,-3.8160317E0,-3.0683105E0,-2.1779706E0,-1.8343667E0,-1.3262877E0,-2.8170228E0,-2.1178203E0,-6.934026E-1,-1.3511375E0,-1.2118704E0,-2.1961365E0,-7.4902934E-1,-3.6316153E-1,3.3315906E-1,-6.8362135E-1,3.1024554E-1,1.1624826E0,6.246304E-1,1.1081683E-2,2.682307E-1,1.0521866E0,2.0143313E0,8.948044E-1,1.235939E0,1.9822716E0,2.507831E0,1.7922802E0,2.7079754E0,3.5559125E0,5.548412E0,6.6517777E0,5.049807E0,-1.3297808E1],"categories":[],"categories_nodes":[],"categories_segments":[],"categories_sizes":[],"default_left":[0,0,0,0,0,0,0,0,0,0,0,0,0,0,0,0,0,0,0,0,0,0,0,0,0,0,0,0,0,0,0,0,0,0,0,0,0,0,0,0,0,0,0,0,0,0,0,0,0,0,0,0,0,0,0,0,0,0,0,0,0,0,0,0,0,0,0,0,0,0,0,0,0,0,0,0,0,0,0,0,0,0,0,0,0,0,0,0,0,0,0,0,0,0,0],"id":11,"left_children":[1,3,5,7,9,11,13,15,17,19,21,23,25,27,29,31,33,35,37,-1,39,41,43,45,47,49,51,53,55,-1,57,-1,-1,-1,-1,-1,59,-1,61,-1,63,65,67,69,71,73,75,77,79,81,83,85,87,89,-1,-1,-1,91,93,-1,-1,-1,-1,-1,-1,-1,-1,-1,-1,-1,-1,-1,-1,-1,-1,-1,-1,-1,-1,-1,-1,-1,-1,-1,-1,-1,-1,-1,-1,-1,-1,-1,-1,-1,-1],"loss_changes":[1.5036049E7,1.984907E6,2.482854E6,4.02197E5,1.3776188E5,3.0039175E5,2.899645E5,1.261925E5,1.93355E4,2.9055E4,2.2121062E4,4.8253414E4,1.8423812E4,2.586475E4,2.678E4,1.27025E3,1.531E3,4.40275E3,5.8735E3,0E0,4.106525E4,1.03204375E4,2.9130938E4,1.3408058E4,1.3080523E4,7.5978594E3,2.6925625E3,2.57475E3,6.6025E2,0E0,3.34455E4,0E0,0E0,0E0,0E0,0E0,2.6875E1,0E0,1.1059E4,0E0,1.45714375E4,4.2010547E2,1.6628281E3,9.404953E3,4.85E3,4.5763086E2,1.6276441E4,1.7289984E4,2.1715227E3,9.0518164E2,1.0506828E4,4.769297E2,4.7002812E3,7.18E3,0E0,0E0,0E0,5.0025E3,2.3049536E5,0E0,0E0,0E0,0E0,0E0,0E0,0E0,0E0,0E0,0E0,0E0,0E0,0E0,0E0,0E0,0E0,0E0,0E0,0E0,0E0,0E0,0E0,0E0,0E0,0E0,0E0,0E0,0E0,0E0,0E0,0E0,0E0,0E0,0E0,0E0,0E0],"parents":[2147483647,0,0,1,1,2,2,3,3,4,4,5,5,6,6,7,7,8,8,9,9,10,10,11,11,12,12,13,13,14,14,15,15,16,16,17,17,18,18,20,20,21,21,22,22,23,23,24,24,25,25,26,26,27,27,28,28,30,30,36,36,38,38,40,40,41,41,42,42,43,43,44,44,45,45,46,46,47,47,48,48,49,49,50,50,51,51,52,52,53,53,57,57,58,58],"right_children":[2,4,6,8,10,12,14,16,18,20,22,24,26,28,30,32,34,36,38,-1,40,42,44,46,48,50,52,54,56,-1,58,-1,-1,-1,-1,-1,60,-1,62,-1,64,66,68,70,72,74,76,78,80,82,84,86,88,90,-1,-1,-1,92,94,-1,-1,-1,-1,-1,-1,-1,-1,-1,-1,-1,-1,-1,-1,-1,-1,-1,-1,-1,-1,-1,-1,-1,-1,-1,-1,-1,-1,-1,-1,-1,-1,-1,-1,-1,-1],"split_conditions":[3.0513474E-1,1.8704239E-1,4.4563046E-1,9.725798E-2,2.4752872E-1,3.8406402E-1,5.1755697E-1,3.594673E-1,1.5461199E-1,1.5913996E-1,2.6776165E-1,3.4361377E-1,4.0528822E-1,4.8259732E-1,5.5345273E-1,2.2222035E0,-2.1938065E-1,5.394401E-1,9.550716E-2,-3.7766545E0,2.3948541E-1,-8.760826E-1,4.7037753E-1,3.8810945E-1,6.188123E-1,4.5641744E-1,5.226676E-1,7.6918447E-1,6.235862E-1,4.753309E0,5.215139E-1,-8.779731E0,-2.4396408E0,-6.431769E0,-4.7309966E0,-5.872414E0,2.7696414E-2,-5.273131E0,8.967325E-2,-3.9895222E0,2.0742951E-1,2.844506E-1,2.1336737E-1,-8.4240556E-1,-8.3398634E-1,-9.1817886E-1,5.536653E-1,4.2378828E-1,-1.052887E0,1.0073695E0,6.6301924E-1,1.0553622E0,7.236891E-1,5.902526E-1,2.7366765E0,3.4050984E0,4.08677E0,1.4889933E0,5.8576614E-1,-6.1527534E0,-4.8174944E0,-4.995024E0,-3.8160317E0,-3.0683105E0,-2.1779706E0,-1.8343667E0,-1.3262877E0,-2.8170228E0,-2.1178203E0,-6.934026E-1,-1.3511375E0,-1.2118704E0,-2.1961365E0,-7.4902934E-1,-3.6316153E-1,3.3315906E-1,-6.8362135E-1,3.1024554E-1,1.1624826E0,6.246304E-1,1.1081683E-2,2.682307E-1,1.0521866E0,2.0143313E0,8.948044E-1,1.235939E0,1.9822716E0,2.507831E0,1.7922802E0,2.7079754E0,3.5559125E0,5.548412E0,6.6517777E0,5.049807E0,-1.3297808E1],"split_indices":[0,0,0,0,0,0,0,2,0,6,6,0,0,0,0,3,3,2,2,0,2,3,6,6,6,6,6,6,6,0,3,0,0,0,0,0,6,0,6,0,0,0,6,3,3,3,6,6,3,2,6,2,6,6,0,0,0,1,0,0,0,0,0,0,0,0,0,0,0,0,0,0,0,0,0,0,0,0,0,0,0,0,0,0,0,0,0,0,0,0,0,0,0,0,0],"split_type":[0,0,0,0,0,0,0,0,0,0,0,0,0,0,0,0,0,0,0,0,0,0,0,0,0,0,0,0,0,0,0,0,0,0,0,0,0,0,0,0,0,0,0,0,0,0,0,0,0,0,0,0,0,0,0,0,0,0,0,0,0,0,0,0,0,0,0,0,0,0,0,0,0,0,0,0,0,0,0,0,0,0,0,0,0,0,0,0,0,0,0,0,0,0,0],"sum_hessian":[3.718E3,1.584E3,2.134E3,6.66E2,9.18E2,1.098E3,1.036E3,2.38E2,4.28E2,4.13E2,5.05E2,6.37E2,4.61E2,5E2,5.36E2,1.12E2,1.26E2,2.37E2,1.91E2,8E1,3.33E2,1.39E2,3.66E2,2.82E2,3.55E2,1.77E2,2.84E2,2.55E2,2.45E2,2.14E2,3.22E2,1.11E2,1E0,1.1E2,1.6E1,6E1,1.77E2,3.3E1,1.58E2,5.1E1,2.82E2,5.3E1,8.6E1,2.41E2,1.25E2,7.8E1,2.04E2,2.77E2,7.8E1,4.1E1,1.36E2,6.6E1,2.18E2,1.92E2,6.3E1,4.5E1,2E2,3.09E2,1.3E1,1.4E1,1.63E2,4.4E1,1.14E2,7E1,2.12E2,2.4E1,2.9E1,4.9E1,3.7E1,9.1E1,1.5E2,1.9E1,1.06E2,6.6E1,1.2E1,1.52E2,5.2E1,8.8E1,1.89E2,1.8E1,6E1,5E0,3.6E1,1.07E2,2.9E1,9E0,5.7E1,1.77E2,4.1E1,5.6E1,1.36E2,2.67E2,4.2E1,1.2E1,1E0],"tree_param":{"num_deleted":"0","num_feature":"7","num_nodes":"95","size_leaf_vector":"1"}},{"base_weights":[5.0024004E-3,-6.8765396E1,5.335515E1,-1.0655046E2,-3.9219784E1,2.1587435E1,8.586575E1,-1.4354166E2,-9.18344E1,-4.863192E1,-2.6855051E1,7.3002934E0,3.8558594E1,7.034559E1,1.0274604E2,-1.6483508E2,-6.5500464E0,-1.00649666E2,-8.090281E1,-6.314385E1,-4.4539085E1,-3.6684254E1,-2.1913595E1,-3.4696743E0,1.2638704E1,3.2364456E1,4.6374695E1,6.1884865E1,7.709961E1,1.0394198E2,5.74667E1,-8.650483E0,-5.752775E0,-5.327534E0,-4.68347E0,-4.8202167E0,-7.608225E1,-2.214809E0,-3.3025157E0,-3.0859425E1,-4.841186E1,-2.6485224E1,-4.298256E1,-1.3361821E1,-3.3705696E1,-1.3244756E1,-1.4244217E-1,1.564487E1,1.7385541E0,2.272729E1,3.5420494E1,1.8656496E0,4.8579834E1,2.5633767E0,6.480024E1,3.2467115E0,3.9527423E0,9.825676E1,1.1782727E2,4.9307685E0,-1.2965363E1,-3.3086033E0,-4.4069176E0,-9.9634904E-1,-1.7292832E0,-2.127061E0,-2.854442E0,-1.7375828E0,-1.131336E0,-1.8363667E0,-2.4464862E0,-8.6651343E-1,-2.1306813E-1,-4.43307E-1,-1.8298889E0,-7.378547E-1,-1.0312849E-1,2.5643378E-1,-7.0536715E-1,2.6909786E-1,1.0887145E0,-4.3064222E-1,2.4245E-1,1.221646E0,6.294734E-1,1.9755243E0,1.1067607E0,2.5410185E0,1.8936993E0,3.4670205E0,2.6903765E0,4.557881E0,5.1190467E0,5.9131365E0,1.486914E0],"categories":[],"categories_nodes":[],"categories_segments":[],"categories_sizes":[],"default_left":[0,0,0,0,0,0,0,0,0,0,0,0,0,0,0,0,0,0,0,0,0,0,0,0,0,0,0,0,0,0,0,0,0,0,0,0,0,0,0,0,0,0,0,0,0,0,0,0,0,0,0,0,0,0,0,0,0,0,0,0,0,0,0,0,0,0,0,0,0,0,0,0,0,0,0,0,0,0,0,0,0,0,0,0,0,0,0,0,0,0,0,0,0,0,0],"id":12,"left_children":[1,3,5,7,9,11,13,15,17,19,21,23,25,27,29,31,-1,33,35,37,39,41,43,45,47,49,51,53,55,57,59,-1,-1,-1,-1,-1,61,-1,-1,63,65,67,69,71,73,75,77,79,81,83,85,-1,87,-1,89,-1,-1,91,93,-1,-1,-1,-1,-1,-1,-1,-1,-1,-1,-1,-1,-1,-1,-1,-1,-1,-1,-1,-1,-1,-1,-1,-1,-1,-1,-1,-1,-1,-1,-1,-1,-1,-1,-1,-1],"loss_changes":[1.3714389E7,1.818874E6,2.172164E6,3.765825E5,1.05529375E5,2.5819084E5,2.65236E5,3.23475E4,4.14855E4,2.8073E4,1.857575E4,3.339067E4,2.207675E4,2.637225E4,2.08865E4,8.986125E3,0E0,1.594E3,1.0226E4,3.2095938E3,2.0174062E4,7.340828E3,2.6575664E4,6.2752397E3,1.2686652E4,7.2941562E3,2.4435938E3,4.323375E3,1.97875E3,2.6472E4,2.2109402E5,0E0,0E0,0E0,0E0,0E0,1.6151625E4,0E0,0E0,3.099336E3,1.37191875E4,9.041758E2,1.179E3,5.5961543E3,7.7213906E3,7.982129E2,1.0745894E4,1.9006148E4,2.7785483E3,8.855078E2,1.0373109E4,0E0,2.105E3,0E0,5.7515625E3,0E0,0E0,8.5575E2,1.6615E3,0E0,0E0,0E0,0E0,0E0,0E0,0E0,0E0,0E0,0E0,0E0,0E0,0E0,0E0,0E0,0E0,0E0,0E0,0E0,0E0,0E0,0E0,0E0,0E0,0E0,0E0,0E0,0E0,0E0,0E0,0E0,0E0,0E0,0E0,0E0,0E0],"parents":[2147483647,0,0,1,1,2,2,3,3,4,4,5,5,6,6,7,7,8,8,9,9,10,10,11,11,12,12,13,13,14,14,15,15,17,17,18,18,19,19,20,20,21,21,22,22,23,23,24,24,25,25,26,26,27,27,28,28,29,29,30,30,36,36,39,39,40,40,41,41,42,42,43,43,44,44,45,45,46,46,47,47,48,48,49,49,50,50,52,52,54,54,57,57,58,58],"right_children":[2,4,6,8,10,12,14,16,18,20,22,24,26,28,30,32,-1,34,36,38,40,42,44,46,48,50,52,54,56,58,60,-1,-1,-1,-1,-1,62,-1,-1,64,66,68,70,72,74,76,78,80,82,84,86,-1,88,-1,90,-1,-1,92,94,-1,-1,-1,-1,-1,-1,-1,-1,-1,-1,-1,-1,-1,-1,-1,-1,-1,-1,-1,-1,-1,-1,-1,-1,-1,-1,-1,-1,-1,-1,-1,-1,-1,-1,-1,-1],"split_conditions":[3.0962622E-1,1.9890562E-1,4.4842073E-1,8.69249E-2,2.637484E-1,3.8406402E-1,5.283581E-1,1.9037132E-1,1.5965252E-1,1.955604E-1,2.9692394E-1,3.3598998E-1,4.203468E-1,4.8259732E-1,5.215139E-1,1.2624084E0,-6.5500464E0,3.7331355E-1,1.0558923E-1,-8.4240556E-1,-7.4979377E-1,-8.929211E-1,4.7037753E-1,3.5668534E-1,6.188123E-1,4.6643794E-1,5.226676E-1,5.902526E-1,6.235862E-1,5.888445E-1,5.8311087E-1,-8.650483E0,-5.752775E0,-5.327534E0,-4.68347E0,-4.8202167E0,2.8283408E-1,-2.214809E0,-3.3025157E0,-8.171478E-1,3.74103E-1,2.844506E-1,8.7490517E-1,4.217675E-1,-8.760826E-1,-9.1817886E-1,5.536653E-1,4.5508263E-1,1.0271716E0,-1.1118218E0,6.8072426E-1,1.8656496E0,7.3546153E-1,2.5633767E0,7.566983E-1,3.2467115E0,3.9527423E0,5.493663E-1,-1.414915E0,4.9307685E0,-1.2965363E1,-3.3086033E0,-4.4069176E0,-9.9634904E-1,-1.7292832E0,-2.127061E0,-2.854442E0,-1.7375828E0,-1.131336E0,-1.8363667E0,-2.4464862E0,-8.6651343E-1,-2.1306813E-1,-4.43307E-1,-1.8298889E0,-7.378547E-1,-1.0312849E-1,2.5643378E-1,-7.0536715E-1,2.6909786E-1,1.0887145E0,-4.3064222E-1,2.4245E-1,1.221646E0,6.294734E-1,1.9755243E0,1.1067607E0,2.5410185E0,1.8936993E0,3.4670205E0,2.6903765E0,4.557881E0,5.1190467E0,5.9131365E0,1.486914E0],"split_indices":[0,0,0,0,0,0,0,4,0,6,6,0,0,0,3,3,0,5,6,3,3,3,6,6,6,6,6,6,6,0,0,0,0,0,0,0,6,0,0,3,6,0,4,6,3,3,6,6,4,3,6,0,6,0,6,0,0,0,3,0,0,0,0,0,0,0,0,0,0,0,0,0,0,0,0,0,0,0,0,0,0,0,0,0,0,0,0,0,0,0,0,0,0,0,0],"split_type":[0,0,0,0,0,0,0,0,0,0,0,0,0,0,0,0,0,0,0,0,0,0,0,0,0,0,0,0,0,0,0,0,0,0,0,0,0,0,0,0,0,0,0,0,0,0,0,0,0,0,0,0,0,0,0,0,0,0,0,0,0,0,0,0,0,0,0,0,0,0,0,0,0,0,0,0,0,0,0,0,0,0,0,0,0,0,0,0,0,0,0,0,0,0,0],"sum_hessian":[3.736E3,1.632E3,2.104E3,7.15E2,9.17E2,1.065E3,1.039E3,2.01E2,5.14E2,5.19E2,3.98E2,5.79E2,4.86E2,5.44E2,4.95E2,7E1,1.31E2,2.8E2,2.34E2,1.11E2,4.08E2,1.31E2,2.67E2,1.92E2,3.87E2,2.74E2,2.12E2,2.46E2,2.98E2,4.81E2,1.4E1,5.8E1,1.2E1,1.44E2,1.36E2,5.1E1,1.83E2,1.7E1,9.4E1,9.2E1,3.16E2,5.2E1,7.9E1,1.56E2,1.11E2,4.8E1,1.44E2,3.03E2,8.4E1,6.8E1,2.06E2,4.5E1,1.67E2,5.7E1,1.89E2,4.6E1,2.52E2,3.47E2,1.34E2,1.3E1,1E0,1.04E2,7.9E1,2.5E1,6.7E1,1.92E2,1.24E2,1.4E1,3.8E1,4.2E1,3.7E1,1.08E2,4.8E1,1.2E1,9.9E1,4.2E1,6E0,1.05E2,3.9E1,1.14E2,1.89E2,1.9E1,6.5E1,5.7E1,1.1E1,1.56E2,5E1,1.35E2,3.2E1,1.3E2,5.9E1,1.36E2,2.11E2,1.33E2,1E0],"tree_param":{"num_deleted":"0","num_feature":"7","num_nodes":"95","size_leaf_vector":"1"}},{"base_weights":[-4.8554108E-1,-6.001037E1,5.461664E1,-1.0581908E2,-3.4698383E1,2.5710625E1,8.204276E1,-1.4052464E2,-9.218912E1,-5.0227207E1,-2.0248709E1,1.5276084E1,4.262432E1,7.0550514E1,1.00114944E2,-7.982976E0,-5.7262254E0,-1.0327011E2,-8.3750984E1,-7.09894E1,-4.490077E1,-2.6951439E1,-7.822703E0,1.6106964E1,-2.3384159E0,4.320586E1,-1.9934204E1,7.140241E1,-1.2590182E2,4.7352324E0,5.4696217E0,-6.1111755E0,-4.939968E0,-5.0857177E0,-8.013755E1,-6.439631E1,-4.9935775E0,-5.468849E1,-4.0291054E1,-3.6736027E1,-2.1567818E1,-5.253119E0,-4.1162176E0,8.009351E0,2.2545092E1,3.2632072E1,4.63398E1,3.7812042E-1,-1.5810273E0,6.0539387E1,8.1482025E1,3.1985931E0,-1.264123E1,-4.8985267E0,-3.8299549E0,-1.7709385E0,-3.2984784E0,-2.8893185E0,-1.8208637E0,-1.8391241E0,-2.5822308E0,-1.3291845E0,-2.04723E0,-5.174494E-1,-1.2725648E0,1.0282768E-1,-6.436323E-1,-1.4069849E-1,5.6516784E-1,6.241738E-1,1.3678044E0,1.3870268E0,1.9749663E0,2.0819528E0,2.6412618E0,3.0966403E0,4.534254E-1,4.5567617E0,3.5840776E0],"categories":[],"categories_nodes":[],"categories_segments":[],"categories_sizes":[],"default_left":[0,0,0,0,0,0,0,0,0,0,0,0,0,0,0,0,0,0,0,0,0,0,0,0,0,0,0,0,0,0,0,0,0,0,0,0,0,0,0,0,0,0,0,0,0,0,0,0,0,0,0,0,0,0,0,0,0,0,0,0,0,0,0,0,0,0,0,0,0,0,0,0,0,0,0,0,0,0,0],"id":13,"left_children":[1,3,5,7,9,11,13,15,17,19,21,23,25,27,29,-1,-1,31,33,35,37,39,41,43,-1,45,47,49,51,-1,-1,-1,-1,-1,53,55,-1,57,59,61,63,65,-1,67,69,71,73,-1,-1,75,77,-1,-1,-1,-1,-1,-1,-1,-1,-1,-1,-1,-1,-1,-1,-1,-1,-1,-1,-1,-1,-1,-1,-1,-1,-1,-1,-1,-1],"loss_changes":[1.2240762E7,2.0764875E6,1.534298E6,2.88842E5,2.5859812E5,1.6612875E5,1.993805E5,7.02715E4,3.445575E4,5.8410375E4,4.984536E4,3.0962422E4,1.39581875E4,1.1124525E5,8.9145E3,0E0,0E0,4.448E3,9.17975E3,1.48959375E4,1.79195E4,1.9751531E4,4.0152438E4,3.0004703E4,0E0,1.0318E4,1.5244666E3,6.174975E4,8.847155E4,0E0,0E0,0E0,0E0,0E0,6.8195E3,1.9488438E3,0E0,5.8198125E3,1.0329625E4,4.765125E3,1.0802906E4,1.14999E4,0E0,9.230041E3,1.5245344E4,1.7595391E3,6.12325E3,0E0,0E0,2.07395E4,2.3079E4,0E0,0E0,0E0,0E0,0E0,0E0,0E0,0E0,0E0,0E0,0E0,0E0,0E0,0E0,0E0,0E0,0E0,0E0,0E0,0E0,0E0,0E0,0E0,0E0,0E0,0E0,0E0,0E0],"parents":[2147483647,0,0,1,1,2,2,3,3,4,4,5,5,6,6,7,7,8,8,9,9,10,10,11,11,12,12,13,13,14,14,17,17,18,18,19,19,20,20,21,21,22,22,23,23,25,25,26,26,27,27,28,28,34,34,35,35,37,37,38,38,39,39,40,40,41,41,43,43,44,44,45,45,46,46,49,49,50,50],"right_children":[2,4,6,8,10,12,14,16,18,20,22,24,26,28,30,-1,-1,32,34,36,38,40,42,44,-1,46,48,50,52,-1,-1,-1,-1,-1,54,56,-1,58,60,62,64,66,-1,68,70,72,74,-1,-1,76,78,-1,-1,-1,-1,-1,-1,-1,-1,-1,-1,-1,-1,-1,-1,-1,-1,-1,-1,-1,-1,-1,-1,-1,-1,-1,-1,-1,-1],"split_conditions":[1.0194346E0,5.874998E-1,1.3857768E0,2.5911075E-1,6.930332E-1,1.2315325E0,1.4033097E0,3.594673E-1,4.4300905E-1,1.5913996E-1,7.8442967E-1,8.458537E-1,9.3290496E-1,2.005704E0,1.7537386E0,-7.982976E0,-5.7262254E0,3.8346368E-1,5.6293264E-2,-6.2350494E-1,6.742374E-1,2.9692394E-1,7.2064865E-1,1.1254767E0,-2.3384159E0,4.995213E-1,3.714655E-1,1.506318E0,-5.52395E-1,4.7352324E0,5.4696217E0,-6.1111755E0,-4.939968E0,-5.0857177E0,8.350897E-2,-8.5082483E-1,-4.9935775E0,-3.7934652E-1,4.421051E-1,-8.929211E-1,-8.5082483E-1,9.11384E-1,-4.1162176E0,4.0082738E-1,4.579562E-1,1.1393496E0,1.3221639E0,3.7812042E-1,-1.5810273E0,9.8206186E-1,1.2113386E0,3.1985931E0,-1.264123E1,-4.8985267E0,-3.8299549E0,-1.7709385E0,-3.2984784E0,-2.8893185E0,-1.8208637E0,-1.8391241E0,-2.5822308E0,-1.3291845E0,-2.04723E0,-5.174494E-1,-1.2725648E0,1.0282768E-1,-6.436323E-1,-1.4069849E-1,5.6516784E-1,6.241738E-1,1.3678044E0,1.3870268E0,1.9749663E0,2.0819528E0,2.6412618E0,3.0966403E0,4.534254E-1,4.5567617E0,3.5840776E0],"split_indices":[4,4,4,5,5,4,2,2,4,6,5,6,6,4,4,0,0,2,6,3,4,6,6,4,0,6,2,4,2,0,0,0,0,0,2,3,0,3,6,3,3,2,0,6,6,2,4,0,0,6,2,0,0,0,0,0,0,0,0,0,0,0,0,0,0,0,0,0,0,0,0,0,0,0,0,0,0,0,0],"split_type":[0,0,0,0,0,0,0,0,0,0,0,0,0,0,0,0,0,0,0,0,0,0,0,0,0,0,0,0,0,0,0,0,0,0,0,0,0,0,0,0,0,0,0,0,0,0,0,0,0,0,0,0,0,0,0,0,0,0,0,0,0,0,0,0,0,0,0,0,0,0,0,0,0,0,0,0,0,0,0],"sum_hessian":[3.73E3,1.793E3,1.937E3,6.37E2,1.156E3,9.44E2,9.93E2,1.77E2,4.6E2,5.56E2,6E2,5.85E2,3.59E2,6.1E2,3.83E2,9.9E1,7.8E1,1.94E2,2.66E2,1.11E2,4.45E2,3.89E2,2.11E2,5.78E2,7E0,3.56E2,3E0,6.08E2,2E0,2.49E2,1.34E2,3.2E1,1.62E2,4E1,2.26E2,9.3E1,1.8E1,1.39E2,3.06E2,1.36E2,2.53E2,2.05E2,6E0,2.57E2,3.21E2,8.4E1,2.72E2,1E0,2E0,2.96E2,3.12E2,1E0,1E0,3.3E1,1.93E2,6E0,8.7E1,1.17E2,2.2E1,2.37E2,6.9E1,4.2E1,9.4E1,6.6E1,1.87E2,1.05E2,1E2,6E1,1.97E2,1.05E2,2.16E2,5.2E1,3.2E1,1.62E2,1.1E2,2.88E2,8E0,1.53E2,1.59E2],"tree_param":{"num_deleted":"0","num_feature":"7","num_nodes":"79","size_leaf_vector":"1"}},{"base_weights":[7.253694E-1,-5.863523E1,4.998909E1,-9.697589E1,-3.2422012E1,2.2674427E1,7.728159E1,-1.3137859E2,-8.32274E1,-4.2795612E1,-1.894044E1,1.0147535E1,3.619914E1,6.211267E1,9.094792E1,-1.5146014E2,-1.0772505E2,-9.3036415E1,-7.3082794E1,-5.5763046E1,-3.9323315E1,-2.4646492E1,-9.5214E0,4.4098825E0,1.6823538E1,2.9695349E1,4.2325504E1,5.3112835E1,6.6629364E1,4.1295223E0,9.744523E1,-7.6073456E0,-2.035257E0,-5.411985E0,-1.5094223E0,-5.2326937E0,-8.739501E1,-8.561068E1,-6.578133E1,-3.0364935E0,-2.2279747E0,-6.0983284E1,-3.5925034E1,-3.1735613E1,-1.9843115E1,-2.9177778E1,-7.684557E0,-6.7975636E0,6.908123E0,1.9905315E1,4.649967E0,1.0106592E1,3.085384E1,3.4888786E1,4.4379604E1,2.0675066E0,5.6233086E1,2.871776E0,6.843852E1,9.956137E1,3.9066364E1,-5.0190806E0,-4.15619E0,-4.3162193E0,-5.8795017E-1,-3.826553E0,-2.710974E0,-1.6642147E0,-3.2006817E0,-1.3561288E0,-2.025593E0,-5.2288E-1,-1.6658729E0,-5.000994E-1,-1.6121714E0,-9.520346E-1,-2.1808197E0,-7.849464E-1,-1.228799E-1,-4.6319452E-1,-1.588919E-1,5.9310925E-1,-2.2704403E-1,6.0882175E-1,1.4724334E0,9.738933E-2,7.1495026E-1,-6.2167358E-2,7.952948E-1,1.084172E0,1.6963519E0,1.0074381E0,1.808865E0,2.3468373E0,1.7463204E0,3.1780016E0,2.2867181E0,2.0994413E0,3.4498868E0,4.7365184E0,5.6028056E0,4.371838E0,-1.2325198E1],"categories":[],"categories_nodes":[],"categories_segments":[],"categories_sizes":[],"default_left":[0,0,0,0,0,0,0,0,0,0,0,0,0,0,0,0,0,0,0,0,0,0,0,0,0,0,0,0,0,0,0,0,0,0,0,0,0,0,0,0,0,0,0,0,0,0,0,0,0,0,0,0,0,0,0,0,0,0,0,0,0,0,0,0,0,0,0,0,0,0,0,0,0,0,0,0,0,0,0,0,0,0,0,0,0,0,0,0,0,0,0,0,0,0,0,0,0,0,0,0,0,0,0],"id":14,"left_children":[1,3,5,7,9,11,13,15,17,19,21,23,25,27,29,31,33,35,37,39,41,43,45,47,49,51,53,55,57,-1,59,-1,-1,-1,-1,-1,61,63,65,-1,-1,67,69,71,73,75,77,79,81,83,85,87,89,91,93,-1,95,-1,97,99,101,-1,-1,-1,-1,-1,-1,-1,-1,-1,-1,-1,-1,-1,-1,-1,-1,-1,-1,-1,-1,-1,-1,-1,-1,-1,-1,-1,-1,-1,-1,-1,-1,-1,-1,-1,-1,-1,-1,-1,-1,-1,-1],"loss_changes":[1.0948677E7,1.7034005E6,1.5235105E6,3.14952E5,1.4044038E5,1.7312138E5,2.064225E5,7.6309E4,4.24575E4,2.3472625E4,2.346711E4,2.0342152E4,1.8346625E4,1.6298E4,2.10575E4,1.64125E3,4.435E2,7.10725E3,1.70535E4,3.8601562E3,3.1152938E4,8.7004375E3,5.841536E3,8.110639E3,9.136445E3,5.1799688E3,2.285875E3,3.8407812E3,1.408375E3,0E0,3.267775E4,0E0,0E0,0E0,0E0,0E0,1.252E3,3.62325E3,1.58606875E4,0E0,0E0,2.9056094E3,1.4809094E4,3.3203594E3,1.9934984E4,1.2186309E3,6.4544893E3,4.4371436E2,1.3439566E4,1.4098266E4,1.3018942E3,1.00710254E3,5.6899688E3,3.9164844E2,3.0260938E3,0E0,7.0931562E3,0E0,9.93E2,6.588E3,1.873113E5,0E0,0E0,0E0,0E0,0E0,0E0,0E0,0E0,0E0,0E0,0E0,0E0,0E0,0E0,0E0,0E0,0E0,0E0,0E0,0E0,0E0,0E0,0E0,0E0,0E0,0E0,0E0,0E0,0E0,0E0,0E0,0E0,0E0,0E0,0E0,0E0,0E0,0E0,0E0,0E0,0E0,0E0],"parents":[2147483647,0,0,1,1,2,2,3,3,4,4,5,5,6,6,7,7,8,8,9,9,10,10,11,11,12,12,13,13,14,14,15,15,16,16,17,17,18,18,19,19,20,20,21,21,22,22,23,23,24,24,25,25,26,26,27,27,28,28,30,30,36,36,37,37,38,38,41,41,42,42,43,43,44,44,45,45,46,46,47,47,48,48,49,49,50,50,51,51,52,52,53,53,54,54,56,56,58,58,59,59,60,60],"right_children":[2,4,6,8,10,12,14,16,18,20,22,24,26,28,30,32,34,36,38,40,42,44,46,48,50,52,54,56,58,-1,60,-1,-1,-1,-1,-1,62,64,66,-1,-1,68,70,72,74,76,78,80,82,84,86,88,90,92,94,-1,96,-1,98,100,102,-1,-1,-1,-1,-1,-1,-1,-1,-1,-1,-1,-1,-1,-1,-1,-1,-1,-1,-1,-1,-1,-1,-1,-1,-1,-1,-1,-1,-1,-1,-1,-1,-1,-1,-1,-1,-1,-1,-1,-1,-1,-1],"split_conditions":[3.2308263E-1,1.9890562E-1,4.527502E-1,8.69249E-2,2.6965302E-1,3.8794342E-1,5.1755697E-1,3.594673E-1,1.5461199E-1,1.955604E-1,3.0153435E-1,3.5986948E-1,4.203468E-1,4.7435245E-1,5.600864E-1,2.2222035E0,6.354256E-1,5.394401E-1,6.114293E-1,2.4752872E-1,2.3948541E-1,3.2514074E-1,3.1147456E-1,3.8996336E-1,6.427095E-1,4.67451E-1,5.226676E-1,5.902526E-1,6.188123E-1,4.1295223E0,5.215139E-1,-7.6073456E0,-2.035257E0,-5.411985E0,-1.5094223E0,-5.2326937E0,6.0418256E-2,-2.6989618E-1,1.5643322E-1,-3.0364935E0,-2.2279747E0,-4.972161E-1,7.3141116E-1,4.3308187E-1,4.8203874E-1,6.1220306E-1,3.8810945E-1,3.4531495E-1,5.7165766E-1,5.14121E-1,1.0193677E0,3.9546186E-1,4.6643794E-1,1.0553622E0,7.3077106E-1,2.0675066E0,7.3546153E-1,2.871776E0,5.9943104E-1,6.045151E-1,5.8576614E-1,-5.0190806E0,-4.15619E0,-4.3162193E0,-5.8795017E-1,-3.826553E0,-2.710974E0,-1.6642147E0,-3.2006817E0,-1.3561288E0,-2.025593E0,-5.2288E-1,-1.6658729E0,-5.000994E-1,-1.6121714E0,-9.520346E-1,-2.1808197E0,-7.849464E-1,-1.228799E-1,-4.6319452E-1,-1.588919E-1,5.9310925E-1,-2.2704403E-1,6.0882175E-1,1.4724334E0,9.738933E-2,7.1495026E-1,-6.2167358E-2,7.952948E-1,1.084172E0,1.6963519E0,1.0074381E0,1.808865E0,2.3468373E0,1.7463204E0,3.1780016E0,2.2867181E0,2.0994413E0,3.4498868E0,4.7365184E0,5.6028056E0,4.371838E0,-1.2325198E1],"split_indices":[0,0,0,0,0,0,0,2,0,6,0,0,0,0,0,3,2,2,2,0,2,6,2,6,6,2,6,6,6,0,3,0,0,0,0,0,6,3,6,0,0,3,2,1,6,6,6,0,6,6,2,2,6,2,6,0,6,0,2,0,0,0,0,0,0,0,0,0,0,0,0,0,0,0,0,0,0,0,0,0,0,0,0,0,0,0,0,0,0,0,0,0,0,0,0,0,0,0,0,0,0,0,0],"split_type":[0,0,0,0,0,0,0,0,0,0,0,0,0,0,0,0,0,0,0,0,0,0,0,0,0,0,0,0,0,0,0,0,0,0,0,0,0,0,0,0,0,0,0,0,0,0,0,0,0,0,0,0,0,0,0,0,0,0,0,0,0,0,0,0,0,0,0,0,0,0,0,0,0,0,0,0,0,0,0,0,0,0,0,0,0,0,0,0,0,0,0,0,0,0,0,0,0,0,0,0,0,0,0],"sum_hessian":[3.742E3,1.697E3,2.045E3,6.88E2,1.009E3,1.023E3,1.022E3,1.94E2,4.94E2,5.69E2,4.4E2,5.32E2,4.91E2,4.87E2,5.35E2,1.02E2,9.2E1,2.47E2,2.47E2,1.17E2,4.52E2,2.73E2,1.67E2,2.87E2,2.45E2,2.41E2,2.5E2,1.67E2,3.2E2,2.4E2,2.95E2,1.01E2,1E0,9.1E1,1E0,7.5E1,1.72E2,8.7E1,1.6E2,7.8E1,3.9E1,5.9E1,3.93E2,1.08E2,1.65E2,1.3E1,1.54E2,5.2E1,2.35E2,1.95E2,5E1,1.4E1,2.27E2,5.8E1,1.92E2,3.8E1,1.29E2,5.8E1,2.62E2,2.84E2,1.1E1,3.7E1,1.35E2,8.6E1,1E0,8E1,8E1,7E0,5.2E1,1.37E2,2.56E2,8E0,1E2,9.3E1,7.2E1,9E0,4E0,6E1,9.4E1,3E1,2.2E1,1.64E2,7.1E1,1.09E2,8.6E1,4E1,1E1,5E0,9E0,5.9E1,1.68E2,6E0,5.2E1,1.48E2,4.4E1,7.3E1,5.6E1,7E0,2.55E2,2.11E2,7.3E1,1E1,1E0],"tree_param":{"num_deleted":"0","num_feature":"7","num_nodes":"103","size_leaf_vector":"1"}},{"base_weights":[-2.694498E-1,-5.8191963E1,4.6360123E1,-9.175333E1,-3.305672E1,1.8882484E1,7.290475E1,-1.22746735E2,-7.8455215E1,-4.7360794E1,-2.5045713E1,7.238476E0,3.2418728E1,5.7906456E1,8.682966E1,-7.050271E0,-1.0128416E2,-8.533799E1,-6.766995E1,-3.2181299E0,-4.428733E1,-2.9351057E1,-1.3653844E1,4.7467688E-1,1.3478491E1,2.1716352E1,3.5745483E1,5.2186005E1,6.4200806E1,7.952345E1,9.37123E1,-5.0854163E0,-1.4716873E0,-4.814098E0,-8.046168E1,-4.178185E0,-6.3300888E1,-2.870065E1,-5.0339935E1,-3.957899E1,-2.606636E1,-2.401299E1,-1.0386518E1,-1.0201668E1,3.802078E0,1.6761623E1,2.957939E0,2.3542614E1,-2.2058918E0,2.8011593E1,3.836382E1,2.164362E0,5.4553482E1,2.7423067E0,6.598237E1,7.371906E1,8.431103E1,5.7447643E1,9.501064E1,-4.631038E0,-3.800724E0,-4.1172256E0,-2.8374012E0,-2.2033813E0,-1.1604956E0,-2.9588184E0,-2.2781074E0,-2.1515002E0,-1.5126919E0,-1.011053E0,-1.9275655E0,-1.4462277E0,-8.201527E-1,-1.3482249E0,-3.1111175E-1,-6.0412663E-1,-2.6050302E-1,4.090301E-1,-3.8797206E-1,3.0926293E-1,1.104015E0,-3.3748922E-1,2.5600436E-1,6.27438E-1,1.4063568E0,-2.3725167E-1,4.5268098E-1,9.9290943E-1,1.5113552E0,2.142688E0,1.6222652E0,3.0228539E0,2.3130085E0,3.3125057E0,1.3381612E0,3.9676845E0,3.3233545E0,4.6364894E0,3.846505E0,5.3184295E0,-1.2017069E1,1.2983353E0,4.7587533E0],"categories":[],"categories_nodes":[],"categories_segments":[],"categories_sizes":[],"default_left":[0,0,0,0,0,0,0,0,0,0,0,0,0,0,0,0,0,0,0,0,0,0,0,0,0,0,0,0,0,0,0,0,0,0,0,0,0,0,0,0,0,0,0,0,0,0,0,0,0,0,0,0,0,0,0,0,0,0,0,0,0,0,0,0,0,0,0,0,0,0,0,0,0,0,0,0,0,0,0,0,0,0,0,0,0,0,0,0,0,0,0,0,0,0,0,0,0,0,0,0,0,0,0],"id":15,"left_children":[1,3,5,7,9,11,13,15,17,19,21,23,25,27,29,-1,31,33,35,-1,37,39,41,43,45,47,49,51,53,55,57,-1,-1,-1,59,-1,61,63,65,67,69,71,73,75,77,79,81,83,85,87,89,-1,91,-1,93,95,97,99,101,-1,-1,-1,-1,-1,-1,-1,-1,-1,-1,-1,-1,-1,-1,-1,-1,-1,-1,-1,-1,-1,-1,-1,-1,-1,-1,-1,-1,-1,-1,-1,-1,-1,-1,-1,-1,-1,-1,-1,-1,-1,-1,-1,-1],"loss_changes":[1.0077062E7,1.4006725E6,1.5062595E6,2.838235E5,1.0801819E5,1.6006094E5,2.14473E5,6.8797E4,3.141575E4,1.49683125E4,2.9664344E4,2.3122605E4,1.5957719E4,1.4976875E4,1.9853E4,0E0,8.44375E1,8.3695E3,8.5985E3,0E0,2.61025E4,1.38848125E4,5.5045273E3,9.41725E3,9.794422E3,5.0323984E3,6.1545938E3,3.3689375E3,3.47625E2,1.28775E3,7.443E3,0E0,0E0,0E0,4.585375E3,0E0,1.5418375E4,6.0647812E3,6.1274375E3,2.1094062E3,2.3960094E4,1.0206172E3,8.875857E3,5.2852734E2,1.0289197E4,1.2070164E4,1.4828374E3,4.9896016E3,3.0026514E2,1.09775E3,5.6250625E3,0E0,7.533875E3,0E0,2.745625E2,3.7625E1,1.62775E3,2.0038219E5,5.1425E2,0E0,0E0,0E0,0E0,0E0,0E0,0E0,0E0,0E0,0E0,0E0,0E0,0E0,0E0,0E0,0E0,0E0,0E0,0E0,0E0,0E0,0E0,0E0,0E0,0E0,0E0,0E0,0E0,0E0,0E0,0E0,0E0,0E0,0E0,0E0,0E0,0E0,0E0,0E0,0E0,0E0,0E0,0E0,0E0],"parents":[2147483647,0,0,1,1,2,2,3,3,4,4,5,5,6,6,7,7,8,8,9,9,10,10,11,11,12,12,13,13,14,14,16,16,17,17,18,18,20,20,21,21,22,22,23,23,24,24,25,25,26,26,27,27,28,28,29,29,30,30,34,34,36,36,37,37,38,38,39,39,40,40,41,41,42,42,43,43,44,44,45,45,46,46,47,47,48,48,49,49,50,50,52,52,54,54,55,55,56,56,57,57,58,58],"right_children":[2,4,6,8,10,12,14,16,18,20,22,24,26,28,30,-1,32,34,36,-1,38,40,42,44,46,48,50,52,54,56,58,-1,-1,-1,60,-1,62,64,66,68,70,72,74,76,78,80,82,84,86,88,90,-1,92,-1,94,96,98,100,102,-1,-1,-1,-1,-1,-1,-1,-1,-1,-1,-1,-1,-1,-1,-1,-1,-1,-1,-1,-1,-1,-1,-1,-1,-1,-1,-1,-1,-1,-1,-1,-1,-1,-1,-1,-1,-1,-1,-1,-1,-1,-1,-1,-1],"split_conditions":[3.1323558E-1,1.9890562E-1,4.4563046E-1,8.69249E-2,2.4427937E-1,3.8406402E-1,5.1755697E-1,3.714655E-1,1.6506208E-1,2.5148362E-1,2.9103926E-1,3.5004044E-1,3.9874455E-1,4.8259732E-1,5.6473994E-1,-7.050271E0,6.354256E-1,5.394401E-1,1.0558923E-1,-3.2181299E0,7.3141116E-1,2.4200131E-1,2.9692394E-1,3.5662973E-1,6.1220306E-1,7.57273E-1,5.226676E-1,5.902526E-1,6.1220306E-1,1.3193223E0,-1.2046023E-1,-5.0854163E0,-1.4716873E0,-4.814098E0,6.0418256E-2,-4.178185E0,1.19503535E-1,2.6776165E-1,1.8980394E-1,2.7673677E-1,4.579562E-1,5.2955407E-1,3.1147456E-1,3.389153E-1,5.66754E-1,4.2378828E-1,1.0445234E0,4.6238708E-1,9.953713E-1,1.0793586E0,6.56994E-1,2.164362E0,7.3546153E-1,2.7423067E0,1.2274756E0,1.2113386E0,1.6432735E0,5.1440682E0,1.3973323E0,-4.631038E0,-3.800724E0,-4.1172256E0,-2.8374012E0,-2.2033813E0,-1.1604956E0,-2.9588184E0,-2.2781074E0,-2.1515002E0,-1.5126919E0,-1.011053E0,-1.9275655E0,-1.4462277E0,-8.201527E-1,-1.3482249E0,-3.1111175E-1,-6.0412663E-1,-2.6050302E-1,4.090301E-1,-3.8797206E-1,3.0926293E-1,1.104015E0,-3.3748922E-1,2.5600436E-1,6.27438E-1,1.4063568E0,-2.3725167E-1,4.5268098E-1,9.9290943E-1,1.5113552E0,2.142688E0,1.6222652E0,3.0228539E0,2.3130085E0,3.3125057E0,1.3381612E0,3.9676845E0,3.3233545E0,4.6364894E0,3.846505E0,5.3184295E0,-1.2017069E1,1.2983353E0,4.7587533E0],"split_indices":[0,0,0,0,0,0,0,2,0,2,0,0,0,0,0,0,2,2,6,0,2,6,6,6,6,6,6,6,6,2,2,0,0,0,6,0,2,6,6,0,6,1,2,0,6,6,4,6,2,2,6,0,6,0,6,2,2,0,4,0,0,0,0,0,0,0,0,0,0,0,0,0,0,0,0,0,0,0,0,0,0,0,0,0,0,0,0,0,0,0,0,0,0,0,0,0,0,0,0,0,0,0,0],"split_type":[0,0,0,0,0,0,0,0,0,0,0,0,0,0,0,0,0,0,0,0,0,0,0,0,0,0,0,0,0,0,0,0,0,0,0,0,0,0,0,0,0,0,0,0,0,0,0,0,0,0,0,0,0,0,0,0,0,0,0,0,0,0,0,0,0,0,0,0,0,0,0,0,0,0,0,0,0,0,0,0,0,0,0,0,0,0,0,0,0,0,0,0,0,0,0,0,0,0,0,0,0,0,0],"sum_hessian":[3.729E3,1.663E3,2.066E3,7.11E2,9.52E2,1.016E3,1.05E3,2.11E2,5E2,3.4E2,6.12E2,5.47E2,4.69E2,5.08E2,5.42E2,1.11E2,1E2,3.01E2,1.99E2,4.9E1,2.91E2,4.43E2,1.69E2,2.63E2,2.84E2,1.13E2,3.56E2,2.71E2,2.37E2,2.69E2,2.73E2,9.9E1,1E0,8.7E1,2.14E2,3.9E1,1.6E2,8.3E1,2.08E2,1.05E2,3.38E2,3.9E1,1.3E2,6.2E1,2.01E2,2.16E2,6.8E1,1.05E2,8E0,9.3E1,2.63E2,6.1E1,2.1E2,4.3E1,1.94E2,1.29E2,1.4E2,1.1E1,2.62E2,5.2E1,1.62E2,3.8E1,1.22E2,2E1,6.3E1,6.9E1,1.39E2,7.4E1,3.1E1,2.32E2,1.06E2,2.2E1,1.7E1,2.5E1,1.05E2,4.4E1,1.8E1,1.46E2,5.5E1,7.3E1,1.43E2,1.2E1,5.6E1,3.2E1,7.3E1,7E0,1E0,2.2E1,7.1E1,1.46E2,1.17E2,1.19E2,9.1E1,1.92E2,2E0,6.7E1,6.2E1,6E1,8E1,1E1,1E0,1E0,2.61E2],"tree_param":{"num_deleted":"0","num_feature":"7","num_nodes":"103","size_leaf_vector":"1"}},{"base_weights":[5.699344E-1,-5.169165E1,4.6480457E1,-8.7808395E1,-2.8609943E1,2.3556057E1,7.2161995E1,-1.1449514E2,-7.3513794E1,-3.877372E1,-1.4852532E1,1.2484296E1,3.691877E1,5.9288345E1,8.3929016E1,-6.798833E0,-1.0487635E2,-8.111511E1,-6.492497E1,-4.701093E1,-3.3288784E1,-2.0381756E1,-6.2267513E0,5.5210776E0,1.8373991E1,3.248162E1,4.335683E1,5.3823215E1,6.561905E1,3.875734E0,8.943209E1,-9.352771E1,-1.191041E2,-4.949166E0,-3.9476166E0,-7.764364E1,-6.115417E1,-4.362009E1,-6.2959396E1,-4.337504E1,-2.9732998E1,-2.9499529E1,-1.6556227E1,-3.5408993E0,-1.6028814E1,-4.7281613E0,7.6486754E0,2.08708E1,6.418407E0,2.4337664E1,3.5082012E1,1.7818533E0,4.6083183E1,2.3020167E0,5.582331E1,2.809899E0,3.386383E0,4.5366917E0,5.832028E1,-2.8705394E0,-4.763908E0,-6.6084924E0,-4.972911E0,-1.1219162E0,-3.9194171E0,-2.6189933E0,-3.686514E0,-2.968259E0,-1.9804926E0,-3.2409008E0,-1.5013679E0,-2.283236E0,-1.6309999E0,-1.1993402E0,-2.0768476E0,-1.553996E0,-8.3803624E-1,-4.689369E-1,-1.4005431E0,-5.6067204E-1,1.9838478E-1,-1.1453475E0,-5.986626E-1,-5.2241457E-1,-1.5271962E-1,5.760912E-1,-1.5250306E-1,5.61281E-1,1.3152504E0,4.5293245E-1,-1.898674E-1,9.7105354E-1,1.326983E0,1.9234656E0,1.2197949E0,2.5449538E0,1.8482125E0,2.8906293E0,2.2652526E0,4.7823815E0,-2.4789085E0],"categories":[],"categories_nodes":[],"categories_segments":[],"categories_sizes":[],"default_left":[0,0,0,0,0,0,0,0,0,0,0,0,0,0,0,0,0,0,0,0,0,0,0,0,0,0,0,0,0,0,0,0,0,0,0,0,0,0,0,0,0,0,0,0,0,0,0,0,0,0,0,0,0,0,0,0,0,0,0,0,0,0,0,0,0,0,0,0,0,0,0,0,0,0,0,0,0,0,0,0,0,0,0,0,0,0,0,0,0,0,0,0,0,0,0,0,0,0,0,0,0],"id":16,"left_children":[1,3,5,7,9,11,13,15,17,19,21,23,25,27,29,-1,31,33,35,37,39,41,43,45,47,49,51,53,55,-1,57,59,61,-1,-1,63,65,67,69,71,73,75,77,79,81,83,85,87,89,91,93,-1,95,-1,97,-1,-1,-1,99,-1,-1,-1,-1,-1,-1,-1,-1,-1,-1,-1,-1,-1,-1,-1,-1,-1,-1,-1,-1,-1,-1,-1,-1,-1,-1,-1,-1,-1,-1,-1,-1,-1,-1,-1,-1,-1,-1,-1,-1,-1,-1],"loss_changes":[8.901617E6,1.443846E6,1.161049E6,2.49461E5,1.47641E5,1.5414556E5,1.36056E5,3.408975E4,2.36555E4,2.5950062E4,2.143071E4,2.3397992E4,1.210375E4,1.196825E4,1.015225E4,0E0,1.566375E4,1.112125E3,5.467125E3,1.0286625E4,1.1944344E4,9.1036875E3,4.6294297E3,5.793016E3,9.119781E3,5.1605938E3,2.3565625E3,1.25925E3,2.264375E2,0E0,4.995375E3,6.624375E2,4.8228125E3,0E0,0E0,9.115625E1,1.4786625E4,1.0403156E4,5.0198438E2,8.252031E2,1.772414E4,1.0896562E3,1.5851531E4,8.167502E3,7.857285E2,4.0849902E2,9.110019E3,1.3122672E4,1.5178625E3,2.640664E2,6.7715E3,0E0,4.135E3,0E0,1.37725E3,0E0,0E0,0E0,5.7100355E4,0E0,0E0,0E0,0E0,0E0,0E0,0E0,0E0,0E0,0E0,0E0,0E0,0E0,0E0,0E0,0E0,0E0,0E0,0E0,0E0,0E0,0E0,0E0,0E0,0E0,0E0,0E0,0E0,0E0,0E0,0E0,0E0,0E0,0E0,0E0,0E0,0E0,0E0,0E0,0E0,0E0,0E0],"parents":[2147483647,0,0,1,1,2,2,3,3,4,4,5,5,6,6,7,7,8,8,9,9,10,10,11,11,12,12,13,13,14,14,16,16,17,17,18,18,19,19,20,20,21,21,22,22,23,23,24,24,25,25,26,26,27,27,28,28,30,30,31,31,32,32,35,35,36,36,37,37,38,38,39,39,40,40,41,41,42,42,43,43,44,44,45,45,46,46,47,47,48,48,49,49,50,50,52,52,54,54,58,58],"right_children":[2,4,6,8,10,12,14,16,18,20,22,24,26,28,30,-1,32,34,36,38,40,42,44,46,48,50,52,54,56,-1,58,60,62,-1,-1,64,66,68,70,72,74,76,78,80,82,84,86,88,90,92,94,-1,96,-1,98,-1,-1,-1,100,-1,-1,-1,-1,-1,-1,-1,-1,-1,-1,-1,-1,-1,-1,-1,-1,-1,-1,-1,-1,-1,-1,-1,-1,-1,-1,-1,-1,-1,-1,-1,-1,-1,-1,-1,-1,-1,-1,-1,-1,-1,-1],"split_conditions":[3.278891E-1,1.9439615E-1,4.6200317E-1,9.725798E-2,2.713812E-1,3.9874455E-1,5.283581E-1,4.5079518E-2,1.5965252E-1,2.2780766E-1,3.0513474E-1,3.629928E-1,4.335962E-1,4.9595472E-1,5.672422E-1,-6.798833E0,7.626686E-2,2.7696414E-2,9.672745E-2,4.0554562E-1,2.2450022E-1,2.9692394E-1,5.568448E-1,3.8996336E-1,6.5169173E-1,4.995213E-1,5.902155E-1,6.188123E-1,6.6301924E-1,3.875734E0,2.502926E0,1.8741937E-2,8.508871E-2,-4.949166E0,-3.9476166E0,1.6111967E-1,2.8283408E-1,1.5643322E-1,6.245255E-1,4.449757E-1,4.3203828E-1,5.348402E-1,4.8388338E-1,3.8999116E-1,2.811051E-1,3.3598998E-1,5.88102E-1,4.579562E-1,7.761089E-1,4.095457E-1,6.92265E-1,1.7818533E0,7.3546153E-1,2.3020167E0,8.2381976E-1,2.809899E0,3.386383E0,4.5366917E0,1.8448689E0,-2.8705394E0,-4.763908E0,-6.6084924E0,-4.972911E0,-1.1219162E0,-3.9194171E0,-2.6189933E0,-3.686514E0,-2.968259E0,-1.9804926E0,-3.2409008E0,-1.5013679E0,-2.283236E0,-1.6309999E0,-1.1993402E0,-2.0768476E0,-1.553996E0,-8.3803624E-1,-4.689369E-1,-1.4005431E0,-5.6067204E-1,1.9838478E-1,-1.1453475E0,-5.986626E-1,-5.2241457E-1,-1.5271962E-1,5.760912E-1,-1.5250306E-1,5.61281E-1,1.3152504E0,4.5293245E-1,-1.898674E-1,9.7105354E-1,1.326983E0,1.9234656E0,1.2197949E0,2.5449538E0,1.8482125E0,2.8906293E0,2.2652526E0,4.7823815E0,-2.4789085E0],"split_indices":[0,0,0,0,0,0,0,0,0,0,0,0,0,0,0,0,1,6,6,6,6,6,6,6,6,6,6,6,6,0,1,6,0,0,0,0,6,6,5,1,6,1,6,6,1,0,6,6,6,0,6,0,6,0,6,0,0,0,5,0,0,0,0,0,0,0,0,0,0,0,0,0,0,0,0,0,0,0,0,0,0,0,0,0,0,0,0,0,0,0,0,0,0,0,0,0,0,0,0,0,0],"split_type":[0,0,0,0,0,0,0,0,0,0,0,0,0,0,0,0,0,0,0,0,0,0,0,0,0,0,0,0,0,0,0,0,0,0,0,0,0,0,0,0,0,0,0,0,0,0,0,0,0,0,0,0,0,0,0,0,0,0,0,0,0,0,0,0,0,0,0,0,0,0,0,0,0,0,0,0,0,0,0,0,0,0,0,0,0,0,0,0,0,0,0,0,0,0,0,0,0,0,0,0,0],"sum_hessian":[3.708E3,1.734E3,1.974E3,6.75E2,1.059E3,1.044E3,9.3E2,2.33E2,4.42E2,6.08E2,4.51E2,5.72E2,4.72E2,4.47E2,4.83E2,6.8E1,1.65E2,2.3E2,2.12E2,2.4E2,3.68E2,2.74E2,1.77E2,2.63E2,3.09E2,2.83E2,1.89E2,2.45E2,2.02E2,2.3E2,2.53E2,9.6E1,6.9E1,2E1,2.1E2,4.4E1,1.68E2,2.01E2,3.9E1,9.3E1,2.75E2,7.9E1,1.95E2,1.4E2,3.7E1,4.5E1,2.18E2,2.55E2,5.4E1,7.1E1,2.12E2,5.3E1,1.36E2,5.5E1,1.9E2,4.2E1,1.6E2,2.41E2,1.2E1,6E0,9E1,3.8E1,3.1E1,1E0,4.3E1,1.02E2,6.6E1,3.8E1,1.63E2,3.6E1,3E0,7.4E1,1.9E1,1.87E2,8.8E1,6.9E1,1E1,1.21E2,7.4E1,6.9E1,7.1E1,1.2E1,2.5E1,9E0,3.6E1,1.6E2,5.8E1,9.3E1,1.62E2,4.3E1,1.1E1,2.5E1,4.6E1,1.59E2,5.3E1,8.6E1,5E1,1.56E2,3.4E1,9E0,3E0],"tree_param":{"num_deleted":"0","num_feature":"7","num_nodes":"101","size_leaf_vector":"1"}},{"base_weights":[-1.7882903E-3,-5.079735E1,4.365065E1,-8.202517E1,-2.8161076E1,1.9148668E1,6.697621E1,-1.09087715E2,-6.980168E1,-3.7158897E1,-1.591186E1,7.8817816E0,3.1093977E1,5.366809E1,7.815424E1,-6.3857455E0,-8.841562E1,-7.682777E1,-6.3233242E1,-5.434653E1,-3.4877563E1,-2.025909E1,-5.336161E0,1.8432305E0,1.2855757E1,2.5603615E1,3.5864124E1,4.994453E1,3.0602126E0,7.011195E1,8.397548E1,-2.083838E0,-4.4677043E0,-7.238971E1,-4.2337604E0,-3.739863E0,-5.3820435E1,-2.8836007E0,-2.0278873E0,-4.67185E1,-3.1196054E1,-1.925324E1,-2.2376177E0,-2.317386E1,-3.568171E0,-6.4540462E0,4.4076543E0,1.56143E1,2.5387905E0,2.6898678E1,4.441345E0,2.9479837E1,3.800556E1,4.2002308E1,5.21811E1,6.559464E1,3.7537923E0,5.4990726E1,8.484624E1,-4.3587003E0,-3.3716886E0,-3.3279004E0,-2.3321254E0,-2.5743892E0,-1.9067115E0,-2.0634468E0,-1.4206513E0,-1.3439314E0,-7.709958E-1,-1.695867E0,-8.5089153E-1,-6.613783E-1,5.2979767E-2,-4.4724616E-1,-1.7137639E-1,4.0755248E-1,-2.5194934E-1,4.6752954E-1,1.153045E0,2.2536317E-2,6.3626164E-1,9.8514414E-1,1.5152221E0,-1.0585802E-1,6.7694396E-1,9.023906E-1,1.5362024E0,2.0252807E0,1.4179455E0,1.8461527E0,2.419521E0,2.8177776E0,2.2856379E0,3.5623856E0,2.9867148E0,5.118525E0,-1.165467E1,3.5675886E0,4.3431625E0],"categories":[],"categories_nodes":[],"categories_segments":[],"categories_sizes":[],"default_left":[0,0,0,0,0,0,0,0,0,0,0,0,0,0,0,0,0,0,0,0,0,0,0,0,0,0,0,0,0,0,0,0,0,0,0,0,0,0,0,0,0,0,0,0,0,0,0,0,0,0,0,0,0,0,0,0,0,0,0,0,0,0,0,0,0,0,0,0,0,0,0,0,0,0,0,0,0,0,0,0,0,0,0,0,0,0,0,0,0,0,0,0,0,0,0,0,0,0,0],"id":17,"left_children":[1,3,5,7,9,11,13,15,17,19,21,23,25,27,29,-1,31,33,35,37,39,41,43,45,47,49,51,53,-1,55,57,-1,-1,59,-1,-1,61,-1,-1,63,65,67,-1,69,71,73,75,77,79,81,83,85,87,89,91,93,-1,95,97,-1,-1,-1,-1,-1,-1,-1,-1,-1,-1,-1,-1,-1,-1,-1,-1,-1,-1,-1,-1,-1,-1,-1,-1,-1,-1,-1,-1,-1,-1,-1,-1,-1,-1,-1,-1,-1,-1,-1,-1],"loss_changes":[8.179805E6,1.2029225E6,1.1326175E6,2.292375E5,1.08522875E5,1.3016919E5,1.469445E5,7.3807E4,1.80325E4,2.0454625E4,1.924736E4,1.4994105E4,1.1391E4,1.004775E4,1.9861E4,0E0,1.01325E3,2.054875E3,2.4493188E4,6.4146875E2,2.0600375E4,6.480078E3,3.8278848E3,4.858492E3,7.75834E3,5.9647656E3,2.2838125E3,3.4570625E3,0E0,3.8975E2,3.25925E3,0E0,0E0,5.624875E3,0E0,0E0,1.0427094E4,0E0,0E0,2.8675625E3,9.7323125E3,8.0039453E3,0E0,1.5030957E2,5.1099775E3,3.7642993E2,6.1941494E3,9.859328E3,1.2491909E3,4.5249062E3,8.6399115E2,3.984961E2,3.2647188E3,6.467969E2,4.01225E3,1.170625E2,0E0,1.876542E5,2.04925E3,0E0,0E0,0E0,0E0,0E0,0E0,0E0,0E0,0E0,0E0,0E0,0E0,0E0,0E0,0E0,0E0,0E0,0E0,0E0,0E0,0E0,0E0,0E0,0E0,0E0,0E0,0E0,0E0,0E0,0E0,0E0,0E0,0E0,0E0,0E0,0E0,0E0,0E0,0E0,0E0],"parents":[2147483647,0,0,1,1,2,2,3,3,4,4,5,5,6,6,7,7,8,8,9,9,10,10,11,11,12,12,13,13,14,14,16,16,17,17,18,18,19,19,20,20,21,21,22,22,23,23,24,24,25,25,26,26,27,27,29,29,30,30,33,33,36,36,39,39,40,40,41,41,43,43,44,44,45,45,46,46,47,47,48,48,49,49,50,50,51,51,52,52,53,53,54,54,55,55,57,57,58,58],"right_children":[2,4,6,8,10,12,14,16,18,20,22,24,26,28,30,-1,32,34,36,38,40,42,44,46,48,50,52,54,-1,56,58,-1,-1,60,-1,-1,62,-1,-1,64,66,68,-1,70,72,74,76,78,80,82,84,86,88,90,92,94,-1,96,98,-1,-1,-1,-1,-1,-1,-1,-1,-1,-1,-1,-1,-1,-1,-1,-1,-1,-1,-1,-1,-1,-1,-1,-1,-1,-1,-1,-1,-1,-1,-1,-1,-1,-1,-1,-1,-1,-1,-1,-1],"split_conditions":[3.2308263E-1,1.9890562E-1,4.527502E-1,9.725798E-2,2.6965302E-1,3.8794342E-1,5.1755697E-1,3.9546186E-1,6.2342745E-1,2.3948541E-1,3.0513474E-1,3.5504496E-1,4.163774E-1,4.9595472E-1,5.600864E-1,-6.3857455E0,1.5587683E-1,3.1583402E-1,1.2306251E-1,2.4752872E-1,2.0196572E-1,6.2774825E-1,3.2347274E-1,3.5662973E-1,6.3364375E-1,7.629831E-1,5.259676E-1,6.188123E-1,3.0602126E0,1.3433187E0,-1.2046023E-1,-2.083838E0,-4.4677043E0,5.6293264E-2,-4.2337604E0,-3.739863E0,1.5461199E-1,-2.8836007E0,-2.0278873E0,2.4427937E-1,2.1661948E-1,3.231663E-1,-2.2376177E0,2.3948541E-1,3.23259E-1,3.389153E-1,5.66754E-1,4.9407074E-1,1.0193677E0,5.14121E-1,3.9874455E-1,1.0553622E0,7.3077106E-1,1.2183077E0,7.6918447E-1,1.2113386E0,3.7537923E0,5.1440682E0,8.1404954E-1,-4.3587003E0,-3.3716886E0,-3.3279004E0,-2.3321254E0,-2.5743892E0,-1.9067115E0,-2.0634468E0,-1.4206513E0,-1.3439314E0,-7.709958E-1,-1.695867E0,-8.5089153E-1,-6.613783E-1,5.2979767E-2,-4.4724616E-1,-1.7137639E-1,4.0755248E-1,-2.5194934E-1,4.6752954E-1,1.153045E0,2.2536317E-2,6.3626164E-1,9.8514414E-1,1.5152221E0,-1.0585802E-1,6.7694396E-1,9.023906E-1,1.5362024E0,2.0252807E0,1.4179455E0,1.8461527E0,2.419521E0,2.8177776E0,2.2856379E0,3.5623856E0,2.9867148E0,5.118525E0,-1.165467E1,3.5675886E0,4.3431625E0],"split_indices":[0,0,0,0,0,0,0,2,2,2,0,0,0,0,0,0,4,6,6,0,6,6,2,6,6,6,6,6,0,2,2,0,0,6,0,0,0,0,0,0,0,6,0,2,6,0,6,6,2,6,0,2,6,5,6,2,0,0,6,0,0,0,0,0,0,0,0,0,0,0,0,0,0,0,0,0,0,0,0,0,0,0,0,0,0,0,0,0,0,0,0,0,0,0,0,0,0,0,0],"split_type":[0,0,0,0,0,0,0,0,0,0,0,0,0,0,0,0,0,0,0,0,0,0,0,0,0,0,0,0,0,0,0,0,0,0,0,0,0,0,0,0,0,0,0,0,0,0,0,0,0,0,0,0,0,0,0,0,0,0,0,0,0,0,0,0,0,0,0,0,0,0,0,0,0,0,0,0,0,0,0,0,0,0,0,0,0,0,0,0,0,0,0,0,0,0,0,0,0,0,0],"sum_hessian":[3.687E3,1.704E3,1.983E3,7.15E2,9.89E2,9.68E2,1.015E3,2.2E2,4.95E2,5.69E2,4.2E2,4.99E2,4.69E2,4.66E2,5.49E2,1.13E2,1.07E2,2.34E2,2.61E2,6.4E1,5.05E2,2.97E2,1.23E2,2.26E2,2.73E2,2.21E2,2.48E2,3.17E2,1.49E2,2.36E2,3.13E2,3E0,1.04E2,1.56E2,7.8E1,1.14E2,1.47E2,4.9E1,1.5E1,1.17E2,3.88E2,2.87E2,1E1,1E1,1.13E2,5.3E1,1.73E2,2.15E2,5.8E1,2.08E2,1.3E1,6.6E1,1.82E2,7.4E1,2.43E2,1.31E2,1.05E2,1.1E1,3.02E2,3.5E1,1.21E2,5E1,9.7E1,7.2E1,4.5E1,8.1E1,3.07E2,9.4E1,1.93E2,2E0,8E0,3.6E1,7.7E1,2.8E1,2.5E1,1.24E2,4.9E1,1.18E2,9.7E1,4.9E1,9E0,6.9E1,1.39E2,8E0,5E0,8E0,5.8E1,1.42E2,4E1,4.5E1,2.9E1,1.43E2,1E2,6.1E1,7E1,1E1,1E0,4.4E1,2.58E2],"tree_param":{"num_deleted":"0","num_feature":"7","num_nodes":"99","size_leaf_vector":"1"}},{"base_weights":[-2.397033E-1,-5.141542E1,3.9582573E1,-8.061764E1,-3.0650589E1,1.6727858E1,6.431223E1,-1.0678798E2,-6.909169E1,-3.9100914E1,-1.9492367E1,5.7695394E0,2.9073952E1,5.275493E1,7.803179E1,-1.21031525E2,-8.53403E1,-7.5615944E1,-6.0720222E1,-5.9908035E1,-3.655823E1,-2.637535E1,-1.6352585E1,-2.5024586E0,9.922604E0,2.364212E1,3.5148792E1,4.7215355E1,6.0239964E1,7.427193E1,9.1961105E1,-6.0771513E0,-1.4785035E0,-4.2888837E0,-1.2041047E0,-4.2451673E0,-7.126476E1,-3.9427898E0,-5.7680027E1,-3.693446E0,-2.666004E0,-4.920791E1,-3.2368153E1,-1.8700897E1,-3.099588E1,-9.893213E0,-2.5113419E1,-1.0356182E1,4.807829E-1,1.2713235E1,2.3291016E-1,1.5392114E1,2.6161684E1,2.863121E1,3.7047646E1,1.8312333E0,4.829421E1,2.6114767E0,3.1131961E0,3.0694058E0,3.7740211E0,1.0438813E0,4.6250477E0,-4.0653853E0,-3.3885465E0,-3.4669979E0,-2.5296035E0,-1.1098633E0,-2.5217404E0,-1.1466366E0,-1.7546103E0,-1.2675064E0,-7.7499175E-1,-2.4716012E-1,-1.6534741E0,4.0365434E-1,-6.3993585E-1,-1.642455E0,-7.3819375E-1,9.1367446E-2,-5.958597E-1,2.6743203E-1,-4.7879383E-1,1.7461476E-1,8.496709E-1,-3.726976E-1,1.2288053E-1,4.2437345E-1,9.5242435E-1,1.4875647E0,8.2352304E-1,1.6571492E0,1.0064152E0,2.316605E0,1.6090759E0,2.5042918E0,1.9956692E0],"categories":[],"categories_nodes":[],"categories_segments":[],"categories_sizes":[],"default_left":[0,0,0,0,0,0,0,0,0,0,0,0,0,0,0,0,0,0,0,0,0,0,0,0,0,0,0,0,0,0,0,0,0,0,0,0,0,0,0,0,0,0,0,0,0,0,0,0,0,0,0,0,0,0,0,0,0,0,0,0,0,0,0,0,0,0,0,0,0,0,0,0,0,0,0,0,0,0,0,0,0,0,0,0,0,0,0,0,0,0,0,0,0,0,0,0,0],"id":18,"left_children":[1,3,5,7,9,11,13,15,17,19,21,23,25,27,29,31,33,35,37,39,41,43,45,47,49,51,53,55,57,59,61,-1,-1,-1,-1,-1,63,-1,65,-1,-1,67,69,71,73,75,77,79,81,83,85,87,89,91,93,-1,95,-1,-1,-1,-1,-1,-1,-1,-1,-1,-1,-1,-1,-1,-1,-1,-1,-1,-1,-1,-1,-1,-1,-1,-1,-1,-1,-1,-1,-1,-1,-1,-1,-1,-1,-1,-1,-1,-1,-1,-1],"loss_changes":[7.66059E6,9.950225E5,1.1937348E6,1.986405E5,9.003969E4,1.486539E5,1.568225E5,5.290775E4,2.146125E4,2.6749438E4,8.580516E3,2.008765E4,1.6228719E4,2.012675E4,1.736575E4,2.113375E3,2.384375E2,4.618E3,7.250625E3,1.3957969E3,2.4378688E4,3.9946875E3,1.6105906E4,4.5971714E3,1.0515734E4,5.334375E3,1.9342812E3,1.92175E3,5.093125E2,1.11175E3,1.676E3,0E0,0E0,0E0,0E0,0E0,1.0160625E3,0E0,1.1946625E4,0E0,0E0,2.8572188E3,8.730906E3,6.925918E2,4.104336E3,8.873119E3,9.282422E3,1.0487827E3,7.051695E3,1.1859785E4,1.5232039E3,1.5298066E3,6.8153906E3,1.5963125E3,6.8219375E3,0E0,2.3553125E3,0E0,0E0,0E0,0E0,0E0,0E0,0E0,0E0,0E0,0E0,0E0,0E0,0E0,0E0,0E0,0E0,0E0,0E0,0E0,0E0,0E0,0E0,0E0,0E0,0E0,0E0,0E0,0E0,0E0,0E0,0E0,0E0,0E0,0E0,0E0,0E0,0E0,0E0,0E0,0E0],"parents":[2147483647,0,0,1,1,2,2,3,3,4,4,5,5,6,6,7,7,8,8,9,9,10,10,11,11,12,12,13,13,14,14,15,15,16,16,17,17,18,18,19,19,20,20,21,21,22,22,23,23,24,24,25,25,26,26,27,27,28,28,29,29,30,30,36,36,38,38,41,41,42,42,43,43,44,44,45,45,46,46,47,47,48,48,49,49,50,50,51,51,52,52,53,53,54,54,56,56],"right_children":[2,4,6,8,10,12,14,16,18,20,22,24,26,28,30,32,34,36,38,40,42,44,46,48,50,52,54,56,58,60,62,-1,-1,-1,-1,-1,64,-1,66,-1,-1,68,70,72,74,76,78,80,82,84,86,88,90,92,94,-1,96,-1,-1,-1,-1,-1,-1,-1,-1,-1,-1,-1,-1,-1,-1,-1,-1,-1,-1,-1,-1,-1,-1,-1,-1,-1,-1,-1,-1,-1,-1,-1,-1,-1,-1,-1,-1,-1,-1,-1,-1],"split_conditions":[3.0962622E-1,1.900937E-1,4.527502E-1,8.69249E-2,2.617592E-1,3.8406402E-1,5.336507E-1,3.8346368E-1,1.5461199E-1,2.1548904E-1,2.9692394E-1,3.3598998E-1,4.203468E-1,4.9595472E-1,5.998796E-1,2.2222035E0,6.354256E-1,5.394401E-1,7.1510784E-2,9.939376E-2,1.955604E-1,-8.929211E-1,4.7037753E-1,3.5668534E-1,6.1220306E-1,4.6643794E-1,9.11384E-1,5.471487E-1,6.863046E-1,7.432295E-1,8.956198E-1,-6.0771513E0,-1.4785035E0,-4.2888837E0,-1.2041047E0,-4.2451673E0,6.0418256E-2,-3.9427898E0,1.2306251E-1,-3.693446E0,-2.666004E0,-8.592441E-1,-7.4979377E-1,2.844506E-1,8.034003E-1,2.4476284E-1,2.8643078E-1,5.2955407E-1,5.4103076E-1,4.2378828E-1,3.524681E-1,1.043364E0,6.6301924E-1,5.348402E-1,1.0793586E0,1.8312333E0,8.186844E-1,2.6114767E0,3.1131961E0,3.0694058E0,3.7740211E0,1.0438813E0,4.6250477E0,-4.0653853E0,-3.3885465E0,-3.4669979E0,-2.5296035E0,-1.1098633E0,-2.5217404E0,-1.1466366E0,-1.7546103E0,-1.2675064E0,-7.7499175E-1,-2.4716012E-1,-1.6534741E0,4.0365434E-1,-6.3993585E-1,-1.642455E0,-7.3819375E-1,9.1367446E-2,-5.958597E-1,2.6743203E-1,-4.7879383E-1,1.7461476E-1,8.496709E-1,-3.726976E-1,1.2288053E-1,4.2437345E-1,9.5242435E-1,1.4875647E0,8.2352304E-1,1.6571492E0,1.0064152E0,2.316605E0,1.6090759E0,2.5042918E0,1.9956692E0],"split_indices":[0,0,0,0,0,0,0,2,0,2,6,0,0,0,0,3,2,2,2,1,6,3,6,6,6,6,2,6,6,6,1,0,0,0,0,0,6,0,6,0,0,3,3,0,2,1,0,1,6,6,1,2,6,1,2,0,6,0,0,0,0,0,0,0,0,0,0,0,0,0,0,0,0,0,0,0,0,0,0,0,0,0,0,0,0,0,0,0,0,0,0,0,0,0,0,0,0],"split_type":[0,0,0,0,0,0,0,0,0,0,0,0,0,0,0,0,0,0,0,0,0,0,0,0,0,0,0,0,0,0,0,0,0,0,0,0,0,0,0,0,0,0,0,0,0,0,0,0,0,0,0,0,0,0,0,0,0,0,0,0,0,0,0,0,0,0,0,0,0,0,0,0,0,0,0,0,0,0,0,0,0,0,0,0,0,0,0,0,0,0,0,0,0,0,0,0,0],"sum_hessian":[3.757E3,1.644E3,2.113E3,6.82E2,9.62E2,1.099E3,1.014E3,2.06E2,4.76E2,5.46E2,4.16E2,5.83E2,5.16E2,5.53E2,4.61E2,1.21E2,8.5E1,2.63E2,2.13E2,5.7E1,4.89E2,1.28E2,2.88E2,1.95E2,3.88E2,2.75E2,2.41E2,3.22E2,2.31E2,3.68E2,9.3E1,1.2E2,1E0,8.4E1,1E0,7.8E1,1.85E2,2.7E1,1.86E2,1.5E1,4.2E1,1.19E2,3.7E2,5E1,7.8E1,1.67E2,1.21E2,5.3E1,1.42E2,3.01E2,8.7E1,6.6E1,2.09E2,5.8E1,1.83E2,3.3E1,2.89E2,5.2E1,1.79E2,3.6E1,3.32E2,1E0,9.2E1,4.2E1,1.43E2,6.7E1,1.19E2,6E0,1.13E2,8.5E1,2.85E2,1.4E1,3.6E1,6E0,7.2E1,2.3E1,1.44E2,6.8E1,5.3E1,6E0,4.7E1,9.6E1,4.6E1,9.6E1,2.05E2,1.9E1,6.8E1,2.4E1,4.2E1,1.51E2,5.8E1,3.6E1,2.2E1,6E1,1.23E2,2.34E2,5.5E1],"tree_param":{"num_deleted":"0","num_feature":"7","num_nodes":"97","size_leaf_vector":"1"}},{"base_weights":[-8.46396E-1,-4.6293873E1,3.844883E1,-7.382821E1,-2.5285364E1,1.6724628E1,5.987389E1,-1.0050175E2,-6.3750935E1,-3.2803802E1,-1.446848E1,7.1738167E0,2.7066282E1,4.79775E1,7.085088E1,-1.1786465E2,-8.909345E1,-7.0012184E1,-5.5758648E1,-4.2958794E1,-2.974064E1,-1.7909477E1,-6.6095557E0,1.252257E0,1.1656185E1,1.8907185E1,2.9567865E1,4.073347E1,5.229913E1,4.6319327E0,6.8783936E1,-5.93284E0,-1.4415406E0,-7.9305214E1,-5.339086E0,-6.714558E1,-3.9865148E0,-3.3729272E0,-5.2378063E1,-1.2121831E0,-4.4642307E1,-2.5368586E1,-3.9084267E1,-1.7021214E1,-2.0050828E0,-3.6081822E0,-1.5497283E1,3.534916E0,-7.1435814E0,1.4421466E1,2.1132758E0,2.0457727E1,-1.45558E0,2.4200384E1,3.1854225E1,1.5994147E0,4.3563984E1,5.2599712E1,1.2052454E0,6.9746185E1,-1.0650077E2,-4.0937767E0,-2.425153E0,-3.3826072E0,-1.0298966E0,-2.2286985E0,-3.216277E0,-1.2258587E0,-2.2840612E0,-1.4411589E0,-3.330686E-1,-1.9995612E0,-6.0818887E-1,-1.1498471E0,-6.4787054E-1,-4.728633E-1,4.0099785E-1,-1.1303542E0,-4.55324E-1,-2.4713421E-1,4.3956318E-1,4.1942507E-1,-4.3731186E-1,3.593876E-1,9.786548E-1,4.3468457E-1,-1.4896973E-2,5.2802044E-1,1.2112806E0,3.048879E-1,-2.2423923E-1,7.6229453E-1,1.2512338E0,1.829956E0,1.328799E0,2.5549219E0,1.7699088E0,2.2727811E0,2.7005928E0,3.073128E0,3.687931E0,-1.14789295E1,3.4913712E0],"categories":[],"categories_nodes":[],"categories_segments":[],"categories_sizes":[],"default_left":[0,0,0,0,0,0,0,0,0,0,0,0,0,0,0,0,0,0,0,0,0,0,0,0,0,0,0,0,0,0,0,0,0,0,0,0,0,0,0,0,0,0,0,0,0,0,0,0,0,0,0,0,0,0,0,0,0,0,0,0,0,0,0,0,0,0,0,0,0,0,0,0,0,0,0,0,0,0,0,0,0,0,0,0,0,0,0,0,0,0,0,0,0,0,0,0,0,0,0,0,0,0,0],"id":19,"left_children":[1,3,